116 300
year -0.001162177 -0.0008446345 0.00017967373 0.00059914123 -0.0011069609 0.0010625052 0.000474494 -0.00030026946 -0.00011318902 0.0015578608 -0.00043977192 0.0003694106 -0.0014414809 0.0014183567 -0.0012445353 -0.00048821702 -0.00010882701 -0.0011200788 -0.0010583706 -0.00045756847 -0.00039886704 -0.0005253763 4.9210754e-05 -0.0008752449 -0.0003910605 0.00038573192 -3.5208992e-05 -0.000676163 -0.001447975 -0.00071683363 -0.001145222 -0.0008965274 -0.0013087296 -0.0010406658 0.0009993917 -0.00095308974 -5.8180376e-08 -0.00084499177 0.0006901286 0.0013387548 0.0005658674 0.0015389143 -0.0002012297 -0.00045031725 0.0012947312 -0.00030677437 0.0004962525 9.879747e-05 0.00043313007 -0.00060041173 0.00125589 -0.00046890342 -3.804148e-05 -0.0004624377 -0.00018917849 0.0008936345 -0.00034384392 -0.0008062546 -0.0016056703 0.0005969622 0.0002700288 -0.0013029778 0.0009755306 0.0014703282 5.352949e-05 0.00039256987 0.0005473252 0.0010450297 -0.00052766537 0.0012508825 -0.00036467356 -0.0011952352 0.0012395735 -0.0013476342 0.0012916848 0.0015397683 -0.0015522552 0.000597847 0.0012421386 0.00071731803 0.0014465918 -0.0014249549 0.00048123117 -0.0007008565 -0.0012134624 0.0013831424 -0.001136162 0.00056707294 -0.0016287828 -0.00062281865 -0.00058319035 -0.0005668896 0.0007440631 0.0007881942 0.00032474266 0.0010803988 0.00017570266 -0.0016627128 0.0008001944 0.00067602895 0.0013620962 0.0005783689 -0.00024726978 0.0013307455 0.0005666969 -0.0009043225 -0.0011017441 0.00039697872 0.00067004916 0.0005900291 0.0001101944 -0.00016395982 0.0015125739 0.00024185538 0.0002583053 0.0005870222 -0.000749314 0.00019472472 -0.001257194 -0.00022267408 -0.0003571029 -0.0011590264 -0.0016354083 -0.00049220544 0.0006394653 0.00058361475 0.00042448263 0.00068805285 -0.00015358937 -0.00022174783 0.00085557473 0.001303504 0.0014733905 -0.0009099096 0.0016410524 -0.00088051707 0.0008658961 -0.00086039316 -0.0011431999 0.001529313 0.00032760724 0.0013337162 -0.000290027 -0.0010813472 0.0013840265 -0.00071287237 0.0015496606 -3.50237e-05 0.00061429775 -0.0009090795 -0.0013865236 0.00096863555 -0.0013473303 0.00022740668 -0.0010827456 0.0005312514 0.00084528734 1.79373e-05 0.00045082677 -0.0008362669 0.00051986513 0.00054612383 0.0014241376 -0.0010323969 0.0005823802 0.0010766869 0.0006389859 -0.00094905944 -0.0004979199 0.0005510992 -0.00080918433 -0.00012047425 0.0009057261 0.00013083014 0.00052060466 -0.0004859094 -0.001177421 -0.0002114562 -0.00036078278 0.0011051432 -0.0014016451 -0.0016197324 -0.00038509342 -0.0005311184 0.00046624342 -0.00087470684 -0.00070684426 -5.064524e-05 -0.00021348076 0.00074867666 -0.0012385804 -0.00017348758 0.0009566858 -0.0014447855 0.0014542519 0.0006431857 -1.1543921e-05 0.0007409459 0.00041811395 0.0011599794 -0.0011312169 0.0015939015 -0.00041615896 8.944235e-05 0.0011931591 0.0015692494 -0.0011004128 -7.080701e-05 -0.0002820328 -0.0015177911 0.00036627342 0.001522471 0.0013034687 -0.0012371294 0.00023056443 0.0004488569 0.001562584 -0.0005929735 0.00063183 -0.0010386809 1.1730289e-05 0.00011734899 0.0010242864 -0.0012698629 0.0014775565 -0.0009393586 0.0009948472 -0.0007544573 0.001149989 -0.0006663159 -0.0006159541 0.0005411676 0.00071824656 -0.0008476388 -0.0007872791 0.0013043255 -0.00091068115 0.0009409961 -0.0014630558 0.00087894953 0.0011416931 -0.0016427723 -0.0016336138 -0.00035232666 0.0005695401 0.0010801591 -0.0011815396 0.0010095373 -7.272798e-06 3.9120987e-05 -0.0001336098 -0.0009674682 -0.0014287818 -0.00092162326 -0.0010831413 -0.0006047134 -0.0012507342 -0.00072305475 0.000840683 0.0008111569 0.000274572 0.0014298612 -0.0015422282 -0.00040690874 -0.0013046332 0.00014904213 -0.00044205633 0.00054151315 -0.00057510927 0.0006001501 -0.00139185 0.00024761443 0.00033820345 0.00072526524 0.00028030586 0.0015943481 0.0009960467 0.000872765 -0.0015238769 -0.00023529008 -2.0061181e-05 -0.0006198372 0.0008797011 0.0016086842 0.0011186736 0.00060827873 0.00013894678 -0.00062846526 -0.0014338305 -0.0015736283 -0.00039713265 -0.0005599737 -0.0016602994 -0.0006913208 -0.0015535954 -0.0014535309 0.00049962086 0.000998141 0.00054686127 -0.0011185491
priyanka 0.0011873922 0.0015073846 0.0012733263 -0.00079810043 -0.00023033992 -0.0003926782 -0.0012813719 -0.001575656 -0.0016006276 -0.0015776361 -0.00025532072 -0.00024842826 0.00050963135 0.0004692371 0.00081263966 0.00070791406 0.0008164746 0.0005330058 -0.00054492755 -0.00084112753 0.001520356 0.00038272454 -0.001342131 -0.0008779363 0.00032822363 -0.0008285859 -0.00042215778 -9.906127e-05 0.0015889305 -0.0008771438 0.001295391 0.0010833206 -0.00019711621 0.00015469859 -0.0013743702 -0.00014592387 -0.0009594454 0.000207724 -0.0005550525 0.0007619207 -0.0016136899 -0.00078478764 0.0016618451 -0.0013964733 0.0015639791 -0.0010473115 -0.0014296381 0.0011610759 0.0014542688 1.7962142e-05 8.856889e-05 0.0005554475 -0.0004013241 -0.00017662266 -0.0010028706 0.0015217287 -0.00065042236 -0.00092157663 0.0012254461 0.0006177075 0.0015151538 -0.001093215 0.0012593279 0.0008721957 0.0006671196 -0.0016390485 0.0012203909 -0.0007184442 -0.0003894659 -0.00010843833 0.0005879482 0.00083466014 0.0005852695 -0.0003074543 0.0010721455 -0.0014716423 -0.0012229515 0.0008120051 0.0011294628 0.0008981347 -0.0004382266 0.0014704118 0.0009415685 0.0011749455 0.0009825226 0.0014610118 0.0009955126 0.0015209711 -0.0012561117 0.0009551644 -0.0002545227 0.0009125589 -0.0006717187 -0.0011022903 0.00037900318 0.00046022417 -0.0014875104 0.0003559952 -0.0009683975 -3.5824705e-05 -0.001487623 -0.001114532 0.00020022085 0.001493606 -0.0015434901 0.00053591374 0.0006236999 0.0010178287 0.00096898904 0.0005786758 0.001398904 0.00048530204 0.00014204343 0.00095132383 0.0009312757 -5.727745e-05 -0.00160949 -0.00062626164 0.0005281688 0.00010792314 0.0006767836 0.000847899 0.00026066805 0.00064988824 -0.0012968376 0.00025027935 -6.870434e-05 0.0015172396 -0.0006486779 0.0009547086 -0.00076783344 -0.00039389703 0.0015725391 -0.0015346692 -0.0011914453 -0.0003664917 -0.00027851196 0.00046072018 0.0015730195 -5.0754345e-05 -0.00021185212 -0.0010984516 0.0015244022 8.841293e-05 -0.00033395592 0.00062359613 0.0011986307 -0.0008375305 -0.0008401788 0.00038286168 0.00017715276 -0.0008400354 0.00022463198 -0.001382595 0.0013948091 -0.001409956 0.0006721411 -0.00045802695 -0.00042600618 0.00072927994 -0.0015850464 -0.0007426118 0.00010925738 -0.0016383295 -5.9957758e-05 -0.0012239286 0.00033512272 0.0010708689 0.0016072582 -0.00072043826 -0.00033652218 -0.00031313716 0.00042677883 -0.0015512344 -0.00021321481 0.00019076344 0.0012431013 -0.0007275281 -0.00088140107 0.00034857256 -0.0014475422 0.0011986961 0.0013736713 0.0013605526 -0.00065017253 0.0012603273 0.0011463634 0.00073150743 -0.0006963408 -0.00075653434 0.0008698681 0.00015991041 -0.0006932974 -0.0008441 0.0006307811 0.0015597034 0.0015920899 0.0008270138 -0.0008372522 -0.00082205876 -0.0016190552 -0.00064695155 -0.00026650616 -0.0010991154 -0.001310675 0.0012945913 0.00066479796 0.00069241674 0.0013192906 0.0003960623 -0.0011100684 0.00057034026 -8.840008e-05 -0.00022647815 0.00082535925 -0.0015007376 -0.0010640309 0.0013752279 -9.906233e-06 -0.00018087326 0.0010461233 -0.0008456698 -0.001191314 -5.8282676e-05 -0.00017738495 -0.0005554316 0.0013938643 0.0009203262 0.0003338438 0.00011653214 -0.00040673447 -0.00100696 -0.0015243151 0.0010054903 0.0005980766 0.0012099476 0.0016231503 -0.0012146768 0.00031674022 0.0011776779 -0.001625358 4.937494e-05 -0.0015287356 0.00056028995 0.0007707787 -0.001146522 0.00095740723 0.00019779055 0.0015581358 -0.00043936996 -0.0014451322 0.00067093637 -0.0013476148 0.0006416498 -0.00056317844 -0.00081718713 -0.0014346563 0.001469217 -0.00022551807 -0.0011672457 -0.0013687386 -0.0015950239 0.0002929774 -0.00103089 -0.00083051575 0.0011135826 0.001607789 -0.0015489276 0.00012546177 0.0009238185 0.00045616954 -0.0016192975 0.0012610432 -5.875491e-05 -0.00038768127 0.00021107259 1.4037547e-05 0.0015136682 -0.0006590779 0.0002916765 0.00023419828 -0.0005038222 -0.001425162 -0.0016165882 0.0015681846 0.00020165411 -0.0011091431 0.0009740664 9.743603e-05 0.0011407824 0.000122427 0.0006337799 -4.2298172e-05 0.0009116002 -0.00021411364 -0.0014768548 0.0010013229 0.000855379 -0.00096265686 -0.0005266442
nick 0.00093959545 -0.0006284627 0.00082391413 -0.0014728383 -0.00025005615 -0.0013464609 0.0016237196 0.0011886954 -0.0012297638 -0.00020044143 -0.0011015668 -0.00019483986 0.0002598502 0.0012758086 0.0004492757 -0.0009603829 -8.2750645e-05 -0.001136531 0.0015625464 0.00040759667 -0.00032741448 0.00092631293 0.00060653046 0.0002439916 -0.0012923065 0.00024140965 -0.00076862075 -0.0005718154 0.00014109172 0.00041757064 0.00085041084 -0.0015281463 4.512768e-05 0.0016226647 0.0006888651 -0.0015956174 0.0005432945 -0.00095399586 0.0009802337 0.00019431052 -0.000657923 0.0004667621 -0.0009581397 -0.0008351758 -0.0009884534 0.00063233747 0.0014339624 -0.0011469475 -0.00071986474 -0.00026240226 -0.00071008154 -0.0015711649 0.0007972117 0.00014318044 0.0015064905 0.00066499785 -0.00015150568 0.001042345 0.00064366765 3.327698e-05 0.00046357236 9.6766336e-05 -0.00090573856 0.0011742908 -0.00155206 4.63741e-05 -6.931667e-05 0.0015791949 -0.0003912845 0.0008541372 0.0014320997 -8.4926396e-05 0.0008800734 -0.0004952255 0.0016498651 0.00093271054 0.0009220936 -0.00078606635 0.0004950438 0.0014120443 -0.0007492253 -0.00049969397 0.0009182406 0.0014344912 3.5377954e-05 0.0006808753 -0.0013134569 0.00095012464 0.00058988313 0.0011822076 -0.0014519359 0.0012611635 0.00021934425 -0.0004042137 -0.00029335404 0.0011065224 0.0009335405 0.0011257342 0.0009926502 0.00088183006 -0.0016081062 0.0005415508 -0.00013304412 0.0014652364 -0.0014791589 -0.0014842999 -0.0015864914 -0.00054093363 -0.0016117449 -0.00075603137 0.0010583948 -0.00064208737 0.0005176095 -0.00020461454 -0.0016286867 -0.0013044943 0.00038294517 -0.0015077427 -0.0016309703 0.0007662341 -0.00048477098 -0.0010415784 0.0010005878 0.0008997944 -0.00096356514 0.00038060648 -0.0007926714 0.0014335708 0.0006855973 -0.0005753906 -0.0013404094 -0.00036029427 0.00070481456 -0.0010312275 0.0013695443 -0.0013503399 -0.00034905874 -0.00030644878 -0.00012394693 -0.00034150606 0.00020832995 -0.00039999996 5.036599e-05 0.0013088309 0.00036309756 -0.001142118 0.00054976204 -0.00030057225 0.00025855596 0.0010468992 -0.0011883078 -0.00012339164 -0.001444136 -9.624343e-05 -0.0001503135 0.00024962274 -0.00027336724 -0.0014829745 -0.00083919463 -0.0010132195 -0.0010404743 -0.00141112 -0.00043639186 0.00145777 -0.0002438989 -0.0008010465 -0.00065809215 0.0009965798 0.0006440376 -0.00030844475 -0.00039909195 -0.0014116841 -0.0015988954 -0.0016243936 -0.00035515305 -0.00079534366 -0.0015469411 -0.0006079557 -0.00032674227 0.0009410987 0.0010888969 -0.00038683307 0.0008230545 -4.6486202e-05 -0.0004140611 0.0003242004 -0.0013794183 2.7526217e-05 -0.0012930173 0.0015805522 0.00036291257 0.0007991013 0.00033771712 -0.0012149983 4.658553e-05 0.0007491481 -9.387974e-05 -0.0006489119 0.00044631187 -0.0011497703 0.0008982292 0.001002989 -0.0015738151 0.00034988017 -0.0016727175 0.00047532842 -0.0002347746 0.0013033132 0.00087060954 0.0003249801 -0.00025381392 -0.0004869785 -1.1460166e-06 -0.0012359048 0.0012889907 -0.0013990448 -0.000792247 -0.000796986 0.00034828568 -0.0013532981 -0.0014266459 0.0015258857 0.00079044676 0.0014052831 7.030205e-05 -0.0015692365 0.0013718251 0.00046932307 -0.0009157502 0.000113295406 -0.00013052097 -0.000529068 0.00019991297 -0.0013638746 -0.00025086367 -0.001437072 -0.0015109478 -0.001623107 0.00017862562 0.0014640093 0.00091841875 -0.0009110729 -0.00034924902 0.00011425581 -0.0007346542 -0.0013517321 0.0015126342 -0.00016564027 -0.00019812887 -0.00031113668 1.5516822e-05 0.0013037437 0.0008697652 -0.00091753557 -0.0007497491 -0.00095084525 0.00010975946 0.00025385522 -0.00016694453 -0.00062500534 -0.001181462 -0.0012953446 -0.00045061513 0.0014516258 0.00025199336 0.0009291374 8.1508624e-05 0.0008815887 -0.001014415 -0.00095782045 0.0008455184 0.0016319075 0.00041054699 -0.00082860154 -0.00036006683 0.0014937548 0.00079420605 -0.001620982 -0.0015288879 -0.0010982543 0.00078184623 -0.00087924645 0.00020430925 0.0008285488 0.0010145498 -0.0008471623 -0.00041330702 -0.0015665352 -0.00064810726 0.00013532973 0.0015540977 0.0016479666 0.0004243257 -0.0006418222 0.0005263067 -0.0016872125 -0.00021888227 -0.0010321727 -0.0003681138 -0.00045575012
deepika 0.0002881008 -0.0012339648 0.0016435238 0.00067825284 0.0002386603 0.0010736737 -0.0004914561 -0.0013443163 -0.00093590596 -0.00081512093 -0.0015638623 0.0001832436 -0.0010335139 0.0009767036 5.6152567e-05 0.00082973676 0.00042155068 -0.00074325624 -0.0010763911 -0.0004767058 7.052131e-05 -0.0014715481 -0.00012346737 -0.00055573997 0.0009232137 -0.0014464287 -0.0011140897 0.0006610938 0.0016199308 0.00027874208 -0.000730175 -0.00041340443 -0.0005714391 -0.0010581844 -0.00082144374 0.00055331923 -0.0015994027 -0.000999107 -0.0006709341 0.0011744659 -0.00085844996 0.0016381621 0.0006416293 0.00054840377 0.00031676545 -9.89207e-05 -0.0010827028 -0.0005840092 0.0011662421 0.000112832844 0.00049207767 -0.0010219497 0.00099036 -0.00022272869 0.00022114444 -0.0012243186 0.00090645114 0.00019968292 0.0005352921 0.0002026192 0.0010807617 0.001566242 -0.0015574335 -0.001253166 -0.000892831 0.0002385207 0.0016109308 0.00045229096 -0.0012868764 0.00032842904 -0.00066345464 -0.0012465287 -0.00046784963 0.0015092809 0.0010947682 0.0015963914 0.00025964403 -4.425794e-05 0.0014801146 0.00023173417 0.00043289244 -0.0014682227 -0.00093891565 -0.0016154117 0.00067300285 -0.00016861875 0.001347758 0.0011975887 -5.1657666e-05 -0.00016845178 0.0007062354 -0.001280289 -0.0015703465 0.0006946764 -7.858153e-05 -0.0008288561 7.711094e-05 -0.0012365296 0.00033311493 -0.0013937954 0.0015354839 -1.8645262e-05 0.00052390445 0.0014218724 5.263928e-05 0.00055042206 0.00025064842 -0.0010464622 -0.00019687373 -0.00076236227 -0.0002607109 0.0016554104 0.00075774407 0.0010077691 -0.001393798 0.00055275444 0.000942726 0.001294238 0.00082163647 0.00056205405 -0.0002813245 -0.0006204823 -0.0015882966 0.00084647216 0.00026026458 0.00023590207 0.0016292698 0.0013305779 0.0002412728 -0.0010402119 -0.000149566 -0.0014125849 0.00072654936 0.0013882135 -0.0009691064 -0.0014436626 -0.0005556233 0.00020301122 -3.0371366e-06 -0.0014975879 -3.550676e-05 7.5283584e-05 0.000172434 -0.00019933244 0.0015934644 -0.0015867623 0.0010183689 -0.000629992 -0.000604421 0.00035246025 -0.00044049628 0.0014585074 -9.764949e-05 -0.0010040087 0.00049197243 -0.00016101211 0.0009144569 -0.0010546967 0.00044174606 0.0015092185 0.0012013973 0.0005091051 0.00023890298 -0.001104239 0.00046195427 0.0006490392 -0.00017838132 0.00054221303 0.0009571552 -0.0008056301 0.0014380816 -0.00043171635 -0.0006564708 0.0011242599 -0.0007320386 0.0004980312 -0.0005425784 -0.0016679441 -0.0001799417 0.0007143757 -0.0006071429 -0.0010992377 -0.00063108024 -0.0013120059 0.0010214584 -0.001072761 0.00033010612 -0.0014874894 0.0008385023 0.0014887562 -0.00034697118 0.0008129183 -0.0009914441 -0.000726188 0.00053642335 0.0012564119 -0.0012260218 0.000873946 0.0011790732 -0.00015645566 -0.00074797304 0.00021418593 0.001276358 0.0014735549 0.0004114763 9.981515e-05 0.0005798193 -0.0012286663 0.0010954486 0.0011403154 0.00012548134 0.0016677841 -0.0006147729 0.0011419 0.0005191223 -0.0011103763 0.00019383477 0.0009426624 0.0012323423 -0.00022493843 0.00014365574 0.0011341386 -0.0012691072 0.0012476172 0.00063264015 0.0012544338 0.00030906373 -0.0014587834 -0.0010060905 -0.001341578 0.00097355375 -0.0006938478 0.0012152324 -0.0013647719 -0.0016161827 0.0015528837 -0.0013620342 0.0013055073 0.0013789587 0.0014058335 0.00060034683 -0.00046874236 0.00025300682 0.00040842834 0.000559844 0.00047868592 -0.00067213335 0.0006795101 -0.0015180212 -0.0013035999 -2.1907306e-05 -0.00041683103 0.0010820867 -0.0001452166 -0.0003219862 0.0012618277 0.00088817504 -0.0010230029 1.7577611e-07 -0.0010899961 -0.00047333975 0.00035188408 0.00079077686 0.00069487246 0.0005627546 0.0015235557 0.00039343894 -0.0009854877 -0.0011716465 0.0007359287 -0.0007942522 0.0010896925 0.0009850496 -1.2736086e-05 0.0006885459 -0.0011414785 -0.00032211922 -0.0014006827 -0.0015424457 -0.0013702405 -0.0014270233 0.0008652702 0.0015406879 0.00045790384 -0.0008865784 -0.00057974516 0.00081816374 0.00035282384 -9.429427e-05 -0.00010656044 -0.00089539227 0.0014610154 -0.0013275424 -0.0012936133 -0.001397514 -0.0016105459 -0.00044326854 -0.0014238367 0.0015931928 -0.00043353124
ranveer -0.0007928918 -0.00094473606 0.0013201117 -0.0008903459 -0.0014225378 0.0012789877 0.0012441997 -0.0009926417 -0.0011026675 -0.0005201427 0.00081257685 -4.4847944e-05 -0.00031714208 -0.0014105587 -0.0011122327 -0.0005818774 -0.00082053745 0.00042878476 0.0003409375 0.0005575153 0.0015138747 -0.0015141024 0.0009030527 -0.0012914927 -0.0011230296 -0.00082465215 -0.0012429013 -0.0002389312 0.0010632334 0.0015273741 0.0015196601 -0.0010237803 -0.0003920947 -0.0016410884 -0.00037100277 0.0014347166 0.00032618258 -0.00046546923 0.0013215886 -0.00059454667 -2.1365278e-05 0.00016751006 0.00024046634 0.0014373009 0.0006742324 0.0009881614 -0.00012879426 0.00024588086 -0.00087300193 -0.0008249082 0.001011238 0.00015083095 0.001364104 0.00041985963 -0.0011748634 0.0008398202 0.00022978052 0.0010986299 -0.000114257025 -0.00084594154 -0.00053824176 0.00085080706 -0.00022888907 -0.00055312936 0.00074716064 0.00052395975 -0.0009404121 -0.00055675185 0.0005837463 0.00028793095 0.0016604096 0.0015767582 0.0013183574 0.00051961985 -0.0009392354 -0.001570423 0.0012368801 0.00012269033 -0.00019606356 -0.0010953607 -0.0005839088 0.0005974151 0.0012033792 0.00024896744 0.00017632071 -0.00021910729 0.00025990928 0.0016364593 0.0014044194 0.001115236 0.0009888317 -0.0014671745 0.0015318582 -0.0011812635 -0.0002288969 0.00011914253 0.0010355352 0.0013575639 -0.0012635064 -0.00052520126 0.00043096516 8.7575776e-05 0.0010360832 0.00071988534 0.001057365 0.00086400844 0.0011199603 -0.0005196539 -6.7053574e-05 0.0003964702 -0.00044408403 -0.0003568347 0.0002064263 -0.00021789677 -0.0005427006 0.0007388635 0.0011640749 0.0013411004 0.00012591532 -0.00087538175 -0.0005306555 -0.00045406687 -0.0008803283 0.0016431606 0.00061906903 0.00020674427 -0.00092172925 0.000819005 -0.001654123 -0.0002818353 0.000987257 -0.0014571367 0.0011094508 -0.00023356354 -0.0012242668 0.0014091406 0.00092337857 -0.00027923108 0.0015094755 0.00041695408 0.0006151519 -0.0002947048 -0.001261844 -0.0016224129 0.0016616279 -0.0012755763 0.0015868101 0.00078914996 0.00036654188 -0.00075053744 0.0014910848 -0.00062957336 0.0011450155 -0.00076145027 -0.00010197614 -0.00077466725 0.001014068 0.0013990374 0.0013885577 -0.0010573858 0.0014908285 -0.000571615 0.00056005846 0.00038862636 0.00055996503 0.0011758681 -0.00036720242 0.0007064479 0.00062477874 0.0008883814 -0.00065987837 -0.0016356622 -0.0010711084 0.001379297 0.0016153308 -0.0005551404 -0.00041107682 0.00022593343 -0.00021341942 -0.0015212037 -0.00076380465 -0.00012853395 -0.00041042644 -0.0004807498 -2.697791e-05 -0.0013285893 0.0007707066 -0.0006943154 0.0015812828 0.000407838 -0.00027117712 -0.00083448977 0.0011925314 -0.0013339411 0.0011464064 0.00092414604 0.00031943206 0.00024737482 -0.0002944307 -3.317143e-05 -0.0011575336 -0.00026365765 0.00078605453 0.0001803625 0.00012641288 -0.0009141198 -0.0014567466 -0.0010508295 0.00020434133 0.0005462463 -0.0008186273 -0.0007678801 -0.0011924888 0.0015750504 -0.00043537363 -0.00055759295 0.0012274149 0.0011504448 -0.0003276872 -0.00058279594 0.0004769213 -0.00019648568 -0.00096120447 -0.000765999 -0.0005068629 0.00024904238 0.0009543719 0.00073374034 0.00014423192 -0.0009078603 -7.089763e-05 0.0009344228 0.0014857266 1.0639141e-05 -0.00034488091 -0.00035348404 9.375902e-05 -4.706192e-06 -8.68591e-05 -0.001252589 -0.00013681389 -0.0012651804 0.00026886823 -0.0014271537 -0.0012689274 -9.1443384e-05 0.00038391736 0.00057099987 -0.00031242883 2.9951989e-05 0.0009493552 -0.00016294865 -0.00094993465 0.0006540132 -0.0012467685 0.00071522576 -0.0006488689 -0.0013689045 0.0011045705 -0.00013561081 -0.0012086442 0.0008564897 -0.0010618365 1.6942136e-05 -0.001206612 0.0011101579 -0.0014639561 -0.0010862395 -0.0006153045 -0.001026025 0.0013243294 -5.9982e-05 2.4543138e-05 0.00088103797 3.6472098e-05 0.00041507086 0.0009088049 0.00016565101 -0.0012558675 0.00024062846 0.0009982567 0.0013418898 0.0010185201 -0.0016150969 0.00045769938 0.0016598732 -0.0010040143 0.00052048557 4.516213e-05 0.0010911454 0.00037798847 0.00046256 0.00061604776 0.001013997 -0.00031592252 -0.00053146604 -9.6119446e-05 -3.896194e-05 -0.0014488305 -0.00058682065
wedding -0.001463299 -0.00044961958 -0.0005698172 0.0014110623 0.000493107 0.0011318886 -0.0005265501 -0.00073423696 -7.400971e-05 -0.0016560744 0.0012139732 0.0014285456 0.00061499036 0.0015678339 0.0005782241 -4.444142e-05 -0.0013829882 -0.0009434062 -0.0006179117 -0.0011278805 -0.000746651 -0.00041101823 -0.00044720955 0.0008834247 0.00084778643 -0.00068376015 0.0007908556 0.001572977 6.3031666e-07 -0.0014836318 0.00044466398 0.0010732671 -0.00086818513 -0.0014185223 0.0011731269 0.00010190248 0.0013216133 -0.0014303587 -0.0010664365 7.565495e-05 0.00067757897 0.0011841689 -0.00017958114 0.00023201785 -0.0004499848 0.0010768769 0.0014974015 0.0016842901 -0.0010535908 -0.0015066296 -0.00057028304 0.00017819353 0.00020570838 0.0010215784 -0.0008254194 -0.0006892264 0.0012105801 0.000745696 -6.325049e-05 -0.0007304391 0.00060295395 0.00088125456 -0.00077687495 -0.0003822911 -0.0004094183 0.0008038027 -0.0007933685 -0.000938415 -0.000123904 -0.00080214505 -0.0009688082 0.0007769618 -0.0015909232 0.0009499875 -0.00025582622 -0.0011561107 -0.0003938775 -0.00071374036 -0.0012866039 0.0006475894 0.00092657947 0.0014767571 0.00017419168 0.0015547303 0.0014012258 0.00077365135 -0.00038733392 -0.00089040364 0.0012600813 0.0009864052 -0.00079529907 0.0016234857 0.0004561607 -0.0006694615 0.00035112016 0.0015697617 -0.00016894485 -0.0016742109 0.0010468869 -0.00019216002 -0.0009821693 0.0010955365 0.00052701886 0.00089449045 0.0015701076 -0.0014672924 0.00046750795 -0.00095954165 -0.0016089154 -0.0006069404 -4.6127978e-05 -0.0009832511 0.00019415806 0.00062631967 -0.000587214 -0.00046955902 0.0002909469 -0.000743673 -0.00036435993 -0.0013987431 0.00091814576 -0.0009521951 0.0010402941 0.0016177515 -0.0016406197 -0.0011412927 0.0014843912 0.00038257125 -0.0012111162 -0.0009808597 0.0008021379 -6.5352e-05 0.0011237641 -0.00092678715 0.00026753484 -0.0016532824 1.5950032e-05 0.00049732625 -0.0010233088 0.00059140543 0.0011254759 -5.6716104e-05 0.0004570639 4.949467e-05 0.001618461 -0.000435603 -4.5311146e-05 -0.0006344566 0.00033334986 0.0005431053 -0.00040031018 0.00017577497 -3.539925e-05 0.00096824585 0.00014512136 -0.000845573 -0.0010490064 0.0016192521 -0.0005395681 0.0015761151 0.0012356065 -0.0012331743 -0.0015819337 -0.0016687057 -6.352289e-05 -0.0007712013 0.00028831666 -0.0002727391 -0.0009221588 0.00081516895 0.0013271497 -0.00033031433 0.001360541 -0.001323356 -0.0014283963 -0.0015443965 -0.00083298894 0.00143092 0.0007748259 0.00023414395 -0.0012468214 -0.00096630584 -0.0009407298 -0.0008147391 -0.0011603016 -0.0006065459 -0.0014948706 0.0014557312 -0.00017260139 -0.0010892936 0.0016414563 0.0006124165 -0.0006797976 0.0010916424 0.0007682956 0.0013633547 -0.0013973372 -0.00020180318 0.0010888384 0.001420487 0.00039047163 0.00043253545 -0.0014392097 -0.001575066 -0.0009735517 0.00055331393 0.0005512308 -0.00033097336 -0.0014876168 -0.00089949166 -0.0009003501 -0.0010540322 0.00043139994 -0.00042448918 -5.78414e-05 -0.0012201187 -0.00163772 0.00080890086 -2.3778974e-05 -0.00077902275 0.0006076856 0.00071493024 0.0013577499 -0.0012128011 0.0009964515 0.0011547804 -0.00066998455 -0.00035145436 -0.00038792397 0.0012097199 0.0011950524 -0.0015161358 0.0015253121 0.00060697517 -0.0014133044 -0.0012411184 0.0011467875 0.0007214249 -0.0009631213 -0.0008436404 -0.0012269876 -0.0012791662 0.0014555623 0.0016443881 0.0004894358 0.0006293793 -0.0003693366 0.00022938773 -0.001496106 -0.0004177164 0.0015600364 0.0010046761 -0.00014811238 -0.00073951954 -0.0010445119 0.00021827774 -1.8275927e-05 -0.0011721441 -0.000715609 0.0007379449 -5.4540804e-05 0.00019545523 0.0003381099 -0.0016328332 0.000116393145 0.0014338404 -0.0011800873 -0.0013320848 0.00050592184 0.0012518417 0.0015068034 -0.00031377724 -0.00012275076 0.00019711809 -0.0005510965 -0.0009504094 -0.00034380567 -0.0003973293 0.0007057359 -3.2093914e-05 0.0010525143 5.142258e-05 0.0007360393 0.0005260985 -0.0007611486 -2.585689e-05 0.0006783212 -0.00017727437 0.0007454867 -0.00093476847 0.0015398667 -0.0012641624 0.001339615 0.00089993904 -0.0008838841 0.00013728032 -0.00012881815 -0.00034147705 0.00054764387 0.0003840931
the 0.0015071649 -0.0008414675 -0.0006685046 0.00027016352 0.0005384861 -0.0015825799 0.0002642534 0.00086852105 -0.00081653113 0.00085426186 -0.00046775033 -7.111002e-05 0.0013814927 0.001411964 -0.00041401267 0.0013356371 0.0008846684 0.0005648241 -0.00095630006 -0.0006883634 -0.0010765579 0.0016317534 0.0015861999 -0.0004609982 0.00027773215 0.00032570487 0.00060660415 0.001442317 0.00012923537 0.00096079655 0.0004275386 -0.001547096 0.0013837585 0.00022531136 -7.857463e-05 0.0010574905 -0.0009429408 0.0012320225 0.0014804939 -0.000532003 -0.00020842532 -0.001140008 0.001051875 -0.00038848547 0.0009338929 0.0007397191 -0.0012214524 0.00045206654 -0.00042217414 -0.0016492835 0.00033045711 -0.0010440891 -0.0001010472 -0.0005640113 0.0005404932 0.00020327195 0.00028317893 0.0014492517 0.0009719548 0.00030342536 0.00034340305 -0.00032102645 0.0009981547 -0.0015254989 -0.00099568 -0.00021861173 0.0011775052 -0.00081459264 0.0012779227 -0.00024759103 -0.0010775065 0.00035721442 -0.00077111844 -0.0007299267 0.000109646884 0.0013496892 0.00021904134 0.00078675046 0.00063822075 0.001068082 0.0015041541 -0.0001489268 0.0007324308 -0.00026542085 -0.0013487097 0.000489814 8.2962644e-05 -0.0013676449 0.0014733697 0.0009251089 0.0010486459 0.0014509235 0.0016140834 -0.00014387822 -0.0015947365 -0.00017369723 0.00011799698 0.0013077715 -2.69665e-05 -0.0014943008 -0.0013012754 -0.0008691631 0.00013681778 0.00033588512 -0.00012780946 0.00077178504 -0.00062064285 0.0007632457 -3.0769193e-06 -0.0004978347 0.00021552677 -0.0004167695 -0.0011854769 -0.0012558682 -0.0006586879 -6.417255e-05 0.0013984253 1.4791822e-05 0.00026737963 -0.00034930118 0.00019152997 0.00085101806 -0.0011559186 0.00085043546 -0.0010121203 -0.00027449548 0.0011075083 0.0011185482 0.0009674977 0.00073841255 0.0008612637 -0.001010861 -0.00048579014 0.00068704225 0.00021327232 0.0010095335 -0.00055812707 -0.0008208584 -0.001353602 -0.001552311 6.074688e-05 -0.0005943807 0.00018193354 0.00012892329 -0.0006980532 -0.0007352936 0.0015294461 -0.0011973327 5.5115124e-05 0.0005182053 -0.00011885757 0.0013226243 0.000847053 -0.00013741612 0.00028285445 -0.00024143995 -0.0005050879 0.0014939564 -0.00029797084 -0.0014697259 0.0001819583 -0.0012420327 0.0014196752 0.0007048897 -0.0014241147 0.000552164 -0.0005567919 0.0010727756 -0.0008008711 -0.0009825494 -0.000724354 -0.0001227845 -0.00030602672 -0.0013657147 -0.0010209887 -0.0012048993 -0.00036279304 0.00014363926 -0.0007161256 0.000624542 -0.0005178092 -0.0011389644 -0.0012228182 0.0004458849 0.00049636146 0.0009469698 0.00078282296 0.0013414614 -0.0011493611 0.0011895227 0.00087188964 -8.196189e-05 -0.0008234766 0.0014704885 0.0012253554 0.000120130346 0.00031996038 -0.0011992883 -0.0005295804 -0.00018252924 0.0008808164 -0.0011669863 0.00062235177 -8.457273e-07 -0.00079165533 0.0015096382 0.0007299781 -0.0013169593 -0.0003974013 0.00058750156 0.0005820217 1.4241132e-05 0.0013701448 0.00070523703 0.00015551312 0.00030138047 -0.0015995426 0.0015394575 0.0007809318 -0.0010268008 -0.00089579873 -3.2737084e-05 0.0007121304 -0.00014385792 0.0011596213 0.0015037982 -0.0014407294 0.00033024303 0.0014920856 0.0002854418 -0.000212226 0.0008542576 0.0014094202 0.00010829962 0.000540463 6.63535e-05 -0.00077249785 0.0014551611 -0.0011743336 -0.0002509476 0.000146618 0.0013435675 -0.00030953757 0.0009897203 0.001351307 -0.0011370409 -0.0015180304 0.00047763923 -0.0008331319 0.00092575955 0.0014166916 -0.00071261363 0.0003867121 -0.001187889 -0.0015593523 -0.0013888997 -0.0014730105 -6.376499e-05 0.00061993074 -0.0010625591 -0.0011946681 0.0013686673 -0.00073974766 0.0006177699 0.00056293776 -0.000704452 -0.00051910384 0.00039559734 4.167515e-05 -0.00021398785 0.0013204608 0.0011694335 -0.00012737443 0.00043834402 -0.00075135706 0.00100725 0.00095302664 0.00084852136 0.0010215887 -0.0005448514 0.0010168579 -0.0015489087 0.00022877661 -0.00089987234 -0.0013503339 -0.00013219743 -0.0012314084 -0.0005818704 0.001108547 -0.0010803493 0.0002835128 -4.4404278e-05 0.0011668383 0.0009445215 0.0007785107 -0.00035109915 0.00026346027 0.00015053459 -0.0014802638 -0.00036976192
chopra -0.00023522065 0.0010173884 -0.001508833 -0.0011872954 -0.00020139414 -0.0014753634 0.001448707 -0.0008174282 0.00050225557 -0.0014034165 0.0010438459 0.0012282163 0.00069992506 0.0009928055 0.0012111171 -0.00063288806 -5.140279e-05 -0.0015967807 0.0002805346 0.0005823082 0.0015166496 0.00088249997 -0.0004734894 -0.0010214334 -0.000289909 -0.0014398274 0.00028901253 0.0016351064 0.0012032461 0.0016623732 -0.0012986462 -0.00079383404 0.00010333886 0.0006730199 0.00029715413 -0.0011456985 0.00093755743 0.00033931286 0.0004336867 9.374172e-05 0.0014818711 -0.0002130234 -0.0012753886 -0.00022058119 0.0012825826 0.0005953572 0.00032922506 -0.00017124978 -6.733676e-05 7.957427e-05 -0.0006155335 -0.0014915029 -0.00069354504 0.00043823023 4.072036e-05 -0.0004236591 -7.195836e-05 0.00041297905 -0.0007332717 0.0013813714 0.00048040223 0.0002795509 0.0014645293 -0.0013807969 0.0011356645 0.0006868714 -0.0012215353 0.00045585845 -0.0006627799 -0.00015033905 0.00026938636 0.00013094698 0.00037246518 -0.00034425416 -0.00027861143 -0.00034331056 -0.00017114166 5.7776406e-06 0.001226072 0.0004895786 -0.0012500358 0.001260649 -0.00097255944 0.0007551112 -0.00025150765 0.0010673618 -0.0015689621 0.001612146 0.00078652165 -0.0010102752 0.00011140231 -0.0013971468 -0.0011194245 0.0012309037 0.0003907633 -0.0011529162 -0.0016007038 0.0013002701 -4.843422e-05 -0.0007216725 0.0013751588 0.0002942607 0.00037072913 -0.0009179255 -0.0005352022 -0.0010032933 0.00055760844 -0.0011589505 -0.00032408952 -0.0002538312 -0.0004297533 0.00019681628 4.9773666e-05 -0.0010665108 0.00037380215 0.00086365995 -0.001391983 -0.00045238712 -0.0011152775 0.0012843941 0.00040655295 -0.00034522515 0.0010374628 0.0016730006 0.000101649464 0.00076938863 0.0013898332 -0.0013849896 -0.0013939168 0.00021138863 -0.00091766607 0.00087079545 -0.00086644664 -0.001524159 -0.0011835163 -0.0014156649 0.0014578989 0.00041826133 0.0014934128 0.0008271724 -0.0007452923 0.00037987513 0.0007061291 -0.00017152657 0.0016750576 2.7956605e-05 -0.00060016505 -0.00018219478 -0.00080431305 -0.0006306293 -0.00021118755 -0.0014671409 0.0006252358 -0.001568221 0.00066385354 0.0006950491 0.00046228856 0.00069011387 -6.7851564e-05 -0.00060192187 -0.00019866457 0.00045017633 -0.0013102544 7.040096e-05 0.000790607 0.0015725521 0.00080865395 -0.0009562973 -8.5128166e-05 0.0011100936 -0.00021085404 -0.0008596166 -0.0016478248 -0.0012018658 0.0012670305 -0.00069954584 -0.0004998596 0.00019810753 0.00024027292 0.0010998739 -0.00071221014 0.00045821434 0.00082813355 0.00061931525 -0.00062186754 -0.00072374364 0.0001742732 0.000826551 0.00078350113 -0.0011770439 -0.0016177224 -0.0011082931 0.0007545851 -0.0010730749 0.00042044139 0.00028050123 -0.0007132001 -0.00074574625 -0.00080789 0.0002828954 0.0014287677 0.00067479355 0.00024724283 -0.001437525 -0.0010058265 0.0007040504 -0.0011755251 -0.0005184567 -0.000771642 0.0008255988 -0.00026302473 0.0010975339 -1.8168972e-05 -0.00024129539 -0.0012208982 -0.0010716328 0.00090467563 -0.0005325778 -0.00039737197 -0.0010887076 0.00080974976 -0.00045013838 0.0015792913 -0.0014568805 0.0008456599 9.81627e-06 -8.964611e-05 0.0008535231 -0.000668072 -0.001038461 0.00011178597 -9.691694e-05 -0.00022519642 -0.00019953879 -4.0299958e-05 -0.0010857995 -0.0010782862 -0.00081326463 4.7806236e-05 -0.0010539187 0.0011738463 0.0014939524 0.00035255984 0.0010920248 0.00045908426 0.00042702246 -0.00017527556 0.001245683 0.0004948996 -0.00042998372 -0.001239125 0.0010412358 0.0010853236 -0.00034647872 0.00018664684 -0.0004615304 -0.000325891 -0.0014418734 0.0015282182 0.00043884365 0.00037353058 -3.504991e-05 -0.000758438 -0.00029039546 -0.000480378 -1.6379216e-05 0.00060844765 0.00089096685 0.0007856882 -0.0009801881 0.00035965908 -0.00035088998 -0.00050139136 -0.0007560198 -0.0015313285 4.3715263e-05 -0.0012763328 4.5193206e-05 -0.0012599857 0.0012336043 0.0011267026 0.00080410985 0.0007587365 0.0010582977 -0.0011893976 -0.0016512737 -0.001218165 0.0014587954 -0.0009247562 0.00011474216 0.001328755 -6.636797e-05 0.00073503377 0.0016408749 0.0005747628 -0.0016109557 9.881236e-06 -0.0002362164 0.00020422382 -0.00082181866
sharma 0.0007457058 -0.00071070174 -0.00036505485 -0.0012935335 0.0014565532 -0.00047204984 -0.0005108966 0.0015831651 0.00077023363 -0.00046159732 -0.0013736642 -0.0012211018 -0.0016201951 -0.00154678 0.0014027066 0.0011032259 0.0009703642 0.00023865204 -0.00042042867 0.001426815 -0.0009814491 0.00070810114 -0.0014226293 -0.0008189988 0.00013832262 -0.0015595916 0.0010292273 -0.0005679313 3.925911e-05 0.0014949373 5.400983e-05 0.00036531806 0.0002995257 4.653503e-05 -0.0010988652 -0.0012971143 0.00096189114 0.00095389294 -0.0015063513 4.5419274e-05 -0.0009965613 0.00037676332 0.0011710636 -0.0007331647 0.00045842608 -0.00070141716 0.0010351484 0.00043867884 -0.0015567581 0.00089057937 0.00050910085 -0.0010987469 0.000254257 -5.830939e-05 0.0008479009 -0.00038074426 0.0003698831 0.00073316135 -2.5040707e-05 0.0010296978 -0.00016254523 0.0016291316 0.0004756117 -0.0011985005 0.0015903021 -0.0012866345 0.0010747714 -0.00027287647 -0.0010077291 0.0009206134 0.0013314121 0.0005390875 2.3646457e-05 0.0014981615 6.611415e-05 -0.0005796789 0.0012276496 -0.0011263348 -0.00097644946 -0.0005034037 0.0010839455 -0.0008608284 -0.0011236595 -0.0005003205 0.00024264309 -0.0004185712 0.00085645996 0.00045479124 0.00049755216 -0.0010912593 -5.3366868e-05 0.00012744253 -0.0012004671 1.4587203e-05 0.00059853744 -0.00056079787 -0.0005376288 0.0013784749 -0.0014580934 0.0014847461 -0.0013695002 -0.0013903016 0.0010493877 0.0009898271 -0.00010135101 -0.0010708268 0.0010286504 -0.0003433805 -0.00065902097 0.0003578881 0.00029553816 0.0012768636 0.0008901704 0.0012832918 -0.0011045475 0.0015672408 0.0003313614 0.00085109787 0.0015728866 -0.0016083196 0.00043261863 -0.00055211654 -0.0005648308 -0.001476525 0.00048727728 -0.0005911882 0.0004003263 -0.0012603836 0.001144116 -0.0002630046 -0.0012619769 -0.0005252901 -0.0011625777 -0.0005305501 0.00091919757 0.0013871519 -0.00042052078 0.0008732128 0.0011593996 0.0010941556 0.0013513311 -0.0012839183 0.0011049613 -0.00043411422 -0.00038069976 0.0003528411 -0.0011737576 -0.0008686574 -0.0003057227 -0.001049045 0.0004941792 -0.00036875528 0.00070414407 0.00053222966 0.0009007525 -0.0014552887 0.0011805954 -8.404693e-05 -0.0011449549 -0.0013771259 0.0013746904 -0.0015414766 -0.0004361795 0.0011564136 0.0003636419 0.00012901667 -0.0014492973 0.0003518896 -0.00047069206 0.0004440247 0.0006345662 -0.0008792535 7.487361e-05 -0.0003958117 0.0010925179 0.00050840795 -5.1947874e-05 0.0016243255 0.0004092941 -0.00039040705 0.0007903002 0.0009641461 0.00033388557 -0.00063869654 -6.372338e-07 2.9858755e-05 0.00094342214 -0.0006621146 0.0012542786 0.0003114793 -0.00014675898 0.000521432 0.000176093 0.0015373525 0.0012402042 0.00022055744 0.0016532325 0.0006527139 -0.00060501497 -0.0012380964 0.00039757323 0.0013861633 -0.0012451943 -0.00065047404 -0.0014215055 0.00014317602 0.00047368862 0.00071132643 -0.00059032365 -0.0009976571 0.0012671347 0.0004895427 -0.0014153826 -0.00086155947 0.0014979006 0.0013960834 0.0009208959 0.0016199716 0.0012387706 0.0013424173 0.0002787716 -8.3035164e-05 -0.0007792312 -0.0011497563 -0.00015012192 -0.00089783553 0.0014828756 -0.0007584052 0.0007966734 -0.00018240974 -0.00060831924 0.0013086533 0.0012062097 0.0016047878 0.0003696533 0.00019014788 -7.009875e-06 0.00071439473 0.00035385627 -7.4122385e-05 0.00025985032 0.00094052195 -0.00016335252 0.0010642816 0.0010823733 -0.00086644565 -0.0009776443 0.00012917328 0.0010776522 0.00032265112 0.0003898109 0.0003730754 -0.0015838802 -0.0013749652 -0.0015813818 -0.0012672686 0.0006625955 -0.0011373888 0.0006458863 0.00068959506 0.00039600336 0.0006727473 0.0003721074 -0.0007647028 -0.00074335496 -0.0005438013 -0.00024161766 0.00055561855 -0.0011063113 -0.00087699457 -0.00064787874 0.0015886832 0.0015516867 -0.0014753122 0.00038405086 0.00043319844 0.00085689826 0.00077926065 0.0008356244 0.0010964648 0.0015108152 2.2151833e-05 -0.0007319327 -0.0006460261 0.0011736742 0.001169191 0.00013898383 -0.0009654093 7.9575846e-05 0.0012215902 -0.0012998724 0.00034507178 0.00080805627 0.0015289277 -0.0010451799 -0.000867159 0.00014753536 0.0010400189 -0.00047025873 0.0010872607
weddings 0.0012414512 -0.0014093515 -0.00080682436 0.00086179096 -0.0011905378 0.00017537673 -0.00044266265 -0.0014050107 0.0014256057 -0.0016390056 -0.00043715705 -0.001485979 -0.0013772898 0.0012660393 -0.0002897916 0.00036927324 -0.0008234482 0.001571797 -2.420861e-05 -0.00088391424 -0.000655538 0.0014971945 0.0010317265 0.000911392 -0.0008119177 0.0012962698 0.0005213686 0.0010620403 0.00045146586 -0.00011118084 -0.00164346 -0.0015108251 0.0001959391 1.2329737e-06 0.001639812 -0.0009422735 0.0011682735 -0.00021548219 -0.0009780241 0.00013678569 0.0012000409 -0.0010750336 0.0011941151 -0.0011642489 0.0014718061 -0.000297811 -0.0013102937 0.0010656927 -0.00043135637 -0.00034011315 -0.00061701745 0.000877564 -0.00089519675 0.0016001376 0.00047797657 -0.00091465353 -0.0004494869 0.0010023973 0.0013132474 -0.0011441138 -0.00022096407 0.0011935488 -0.00031415964 -0.0015718752 -0.0004910533 -0.00028135898 0.0013763283 0.0010469869 3.1107193e-05 0.00083366485 -0.00019227345 0.0009822209 -0.00046890444 -0.0011629526 -0.00026323445 0.00043959002 -8.2645536e-05 0.0006833927 -0.0012407419 0.0008723897 0.0005591161 -0.0012334392 0.001557792 -0.0007641129 -0.0010746679 0.0007391354 -0.0010415239 0.0005543735 0.0001326177 0.0013009749 0.0008875292 0.00022949142 0.00081655476 2.0191348e-05 -0.0009578456 0.0015281143 -0.00028903107 -0.00076562556 0.00052759587 0.0003370402 -0.0010050182 -0.00095083367 -0.0008655421 -0.0010263686 -0.00019057715 0.0015833649 -0.0010199427 -0.0011615931 0.0012795256 -0.00042786935 0.0013416243 0.0008614463 -0.00023651807 -0.0014681504 0.0001461012 -0.0002013631 0.0016215787 0.00061883015 -0.000118210635 0.0004448129 0.0007636356 -0.0012168356 0.0015221998 0.0008229511 0.0006560154 0.0007762655 0.00031124387 0.0011957145 -0.0010590991 -9.671887e-05 0.00022581301 0.00014502682 0.0015451618 -0.0016071842 -0.0015591249 -0.0004033842 0.00011936775 0.00088979554 -0.00094472157 -5.705669e-05 -0.0009725202 -0.0013588804 9.917754e-05 -0.0012543458 -0.0012984033 -0.0016541857 -0.00040263374 0.0005128738 -0.0010999644 0.0003547065 -0.0009322651 0.00061469653 0.0004128931 0.0003865666 -0.0014091507 -0.001491719 -0.00016611771 -0.0015390938 -0.0012995121 -6.441045e-05 0.00019833789 -0.00040739065 -0.000585487 0.00033046646 -0.00043119446 0.00046872674 0.0015787013 0.00031873287 0.0008383048 -0.0015843541 -0.0005030028 0.0008237164 0.0004101849 -0.00057895953 0.00062575436 -0.0010758435 -0.0013921001 0.0013399948 -5.214416e-05 -0.0006265537 8.168035e-05 0.00029761562 0.0011593726 -0.0007019958 0.0006648624 -0.00012295335 -0.0012816862 -0.00073788135 -0.00030136984 -0.0012747843 -0.0013529108 -7.003547e-05 0.00044725172 -0.0005599013 0.00035855352 -0.0008173212 0.0009032934 -0.00018334766 -0.00069195795 0.0006461345 3.8747665e-05 0.0007863909 -0.00070869434 0.0008213518 0.0014196201 -0.00019235695 -0.0011928958 -0.0008835312 0.001615692 -0.00077132875 0.0005425419 0.001059259 0.0015707737 -0.00034200292 0.0013535044 0.00095521036 -0.00020392137 -0.0013390457 0.00026334432 -0.00013154892 0.0009009129 -0.0008508712 -0.0004067845 -0.00056561566 0.001189389 -0.00083609525 0.00018561269 -0.001026143 0.0010735817 0.0006724617 -0.0007961061 -0.00032145303 -6.637435e-05 0.00016487185 1.9159106e-05 0.0010156805 0.00020780867 -0.00034642508 -0.00033063773 -0.0011959155 9.9386634e-05 0.00091331993 0.00076603645 -0.0010481329 0.0009862641 -0.00025604965 0.0014428719 -0.00041773423 -0.0014778901 -0.00051873474 -0.00038788823 -0.0015749546 -0.0011225881 0.0015361345 -0.0002646839 0.0006833416 -0.0013215863 0.0005193596 -0.0015735371 -0.00059421425 -0.0002497626 0.0006691715 0.0014683312 0.0015807853 0.0007259328 -0.00096036127 -0.0008170808 0.0006560202 -0.00019332801 0.0006722387 -0.000664728 -0.0016156732 -0.00023460378 -0.00036291452 0.00012305687 0.0007072365 0.0014328633 -6.332584e-05 0.0014371979 -0.00019609525 0.00089864404 -6.0122264e-05 -0.0012269364 -0.0002905155 0.0015875855 -0.00016418706 0.0010056625 -0.0013551217 0.0015711802 -0.00042913028 0.0007674783 0.00086689816 0.00057109684 -0.0007601761 -0.0013433289 0.00030456588 0.0013031416 -0.000113979724 -0.0005721332 -0.0001306836
jonas -0.0012789121 -0.0014954287 0.0006276426 0.0014447059 -0.0011973913 -0.0005672123 -0.0011773898 0.0013808459 0.0015780163 -0.00036861867 0.00048238703 0.00017598337 0.0010143274 0.00027838806 -0.001289505 0.00010331435 -0.000841751 -0.00041597767 0.0011262499 -0.00040411885 -0.0006169671 7.719317e-05 0.0008125784 0.0011879648 -0.0013207401 0.00032643738 -0.0010177855 -0.0016387627 0.0009659753 -0.0013542972 0.00015339965 -0.00017533585 -0.000683675 0.0007285278 6.178603e-05 0.0014314869 0.0013177948 0.000760009 -9.534219e-05 -0.00011862298 1.3508116e-05 -0.00041287046 -0.0016364636 0.001011197 0.00010244379 0.0012672091 0.0007967936 -3.3432356e-05 0.00040891088 0.0011254336 0.00028378982 -9.228199e-05 -0.00011252589 -0.0015440406 0.0007046969 -0.0015745328 -0.0014311941 0.0011180884 -0.00033875892 0.0004804154 0.00015541601 -0.0009450778 -0.0011474313 0.0006382261 0.0013033242 0.00097048865 0.0001232736 -0.0011091356 1.943152e-05 0.0014151526 0.0011887102 -0.00020092672 -0.00064612017 0.0014337822 0.00084640674 0.0014469757 0.00085256126 -0.00014117906 -0.00019731004 0.00088490016 -1.8845538e-05 -0.00020399019 -0.0014498392 0.0011502935 0.0010568041 0.0011709627 0.00082741515 0.0011467685 0.0013253536 -0.00087844336 -0.00094337156 0.0015221046 -3.557852e-05 -0.0006447077 -0.00059467007 -0.00080486294 0.00047594012 0.0012549746 -0.0006595122 0.0009669622 0.0014532688 -0.00020401525 0.0015469091 -0.0011090066 0.0008900225 -0.0010816148 0.00089040643 3.9940987e-05 -0.0008308112 0.0012783586 -0.00028390394 0.00042377142 0.0015387094 0.0011122414 0.0015852987 -0.00090356026 0.0010529798 0.0005673062 -0.00075192185 0.00013741993 -0.00060565845 0.001208652 -0.0013171333 -2.5717785e-05 0.00016354513 -0.0016536214 -0.0016533552 -0.0007539405 -0.0015960279 0.0009486693 -0.00033822932 -0.00036279313 4.955154e-05 -0.00145261 0.0014212601 5.2553565e-05 -0.00025791026 0.0016182613 -0.00010416378 0.0007975213 -0.00042220476 -0.00090784655 0.00088846084 -2.2078539e-05 0.0012835312 -0.00027938487 -0.0012323211 0.0008697487 -0.0010771204 -0.0011774505 -0.0012371076 -0.0012865745 -0.00044258035 -0.00029381577 -9.432795e-06 0.0013093159 -0.0008837312 -0.00019509737 0.00015492082 0.001151368 -0.0013869933 -0.00079171197 -0.0011662516 -0.00041888378 0.0010812444 -8.371519e-05 0.0015026245 1.4829634e-05 -0.0014411098 -0.0011354676 0.0012520638 -0.00045155382 0.0015001303 0.00075581105 1.1905663e-05 0.00035556953 0.0012154959 -0.0011637743 0.0005132151 0.00016159416 -0.0011301265 0.0009274587 0.0015969091 -0.00019662832 0.0010975708 0.0015616348 -0.00047991832 -0.0014141881 -0.00032318625 -0.0015323404 0.0003580703 0.0009269262 -0.00013432256 0.0010532103 0.00089794496 0.0009907965 0.0012641703 0.00056780665 0.0014233231 0.0007811341 -0.0006469738 0.0009332458 4.6421574e-05 -0.00053303916 -0.0011342788 0.0005026117 -0.00055790273 0.0014729513 0.00045651788 -0.0015435456 0.00091870123 0.0013990502 -0.0009870746 -0.00085722876 -0.0015185986 -3.2976975e-05 -0.0012601019 0.00013048731 -0.0014654866 0.0004991674 0.00089181063 0.00051541947 4.5948775e-05 -0.00070215506 0.0011376706 -0.00017505437 0.0009535216 0.0011202611 -2.0978003e-05 -0.0006489737 0.0015770578 0.0009735065 -0.0015994236 -0.0002611593 4.2380238e-05 0.00028474221 0.0009371809 -0.00048387618 0.00078690314 -0.00068834133 0.0010598928 -0.0013188664 0.00079578324 -0.00109277 0.00054762856 0.00097364176 0.0010375232 0.0006964527 -0.00087526836 -0.0010193354 -0.0016248893 0.0011087237 0.0008347698 -0.0007921944 0.00018610661 -0.001280086 -0.00030504336 -0.00036030303 0.00021157785 -0.00040044214 0.0011083841 0.0013614553 0.0013316541 7.6213655e-05 -0.0008917846 -0.0011658822 0.0016271388 0.0004028233 -0.0012189376 -0.0012383268 -0.0003943473 0.00082587515 0.00015608517 0.00044417448 -0.0012653334 0.0010204726 0.0007477936 0.00033595215 -0.0015314419 0.0011625447 -0.0011168697 0.0013325913 0.0003045465 -0.0014887225 0.0005036662 -0.0015225445 0.00022330895 -0.0010228003 -0.0008290972 0.0008899445 0.0011233257 -0.0013314399 0.0002132771 0.00020939375 0.0010815375 -0.0010746169 -0.0004848002 0.00088743493 -0.0003954517 0.00055916066
kapil -0.0015509911 -0.00040263557 -0.0006464064 -0.0015820559 -0.00014210683 0.00022916241 -0.00085028965 -0.0015487997 -0.0010223277 0.00035140893 -0.0011609461 -0.00018085154 0.00013895967 0.0015294685 0.000111548434 -0.00035441248 -0.00037488103 0.0015618689 -0.001262765 0.00042631855 0.00062662223 0.00016169074 0.00016250399 0.0008382349 0.0014498828 0.00028304438 -0.001420344 0.0015266617 0.0011612024 -0.00083179947 -0.00016729091 -0.0013843044 -0.0005979454 -0.00026682712 -0.0010963246 0.00039704112 -0.0010096143 -0.0013431165 0.001106129 0.00075097824 -0.00048376905 -0.0015754262 0.0010628401 -0.0010706643 0.0011622749 0.0009424949 -0.0016006032 0.00060428964 -0.00045536744 0.00014255391 0.001553976 -0.0006844146 -0.00019396648 0.00042323614 0.00020181823 0.00024411046 -0.0015056472 -0.00021625432 -0.0011140024 0.0015653325 0.00050468737 -0.00013602311 -0.0015907461 -0.00064568565 0.00013997902 0.0008126026 -0.0011642448 0.0013327644 0.0011881831 -0.00082574075 0.0003233812 0.0007354725 0.00022908673 -0.001554864 -0.0014259605 -0.0003890825 -0.0006545014 0.00027927523 2.5052311e-06 0.0005593823 -0.00038060168 0.0014173591 0.0006790723 -0.00096165127 -0.0011096395 -0.0003668124 0.00031703143 0.00014521938 -0.0014968098 -0.00011549868 0.0009344549 -0.00031235075 0.0015862153 0.0012800192 -0.0008732317 0.0015543798 0.0012299326 0.00058605685 -0.0014714999 -0.0012961379 -0.0016187323 -0.0011695644 -0.00017441799 -0.000534098 -0.0016408239 0.0009474063 0.00053489517 -0.00051390094 0.0012251865 -0.0015756234 0.0007873282 0.00019013809 -0.0011538267 -0.00056918105 -0.0012692922 0.0009987542 -0.001368033 -0.0012043106 0.00027632722 0.0013206229 -0.0005177973 -0.00013822972 0.00069452205 0.0014991385 1.016018e-05 -0.0013053672 0.0012254625 -7.4549265e-05 0.00019518775 0.0012614734 0.00047490574 -0.00030703042 0.00035710508 -0.0013338488 -0.0003568032 -0.0012480288 0.001626211 -0.0003573962 0.0010300787 5.804064e-07 -0.0010963606 -6.6607114e-05 0.00036657887 0.0014837887 -0.0013421313 0.00091293425 -0.0010497484 -0.0005653119 -0.0007482377 -0.0014451998 0.0013493672 0.00048163396 0.00076055015 0.0014884887 0.0012608083 0.0015276925 -0.0011274366 0.001260025 0.0012200448 -0.001028788 -0.00042576494 -0.001537025 -0.0011538294 0.0007726192 -0.00049376226 0.0013979288 0.00063653494 0.00060407544 -0.001528981 0.00143126 -0.00024053597 0.0012013444 -0.00014972853 0.00076676847 -0.00013652803 0.0011336327 0.000424391 0.0014906344 -0.0012375856 -0.00036886436 -0.0003302824 7.769125e-05 -0.00051527814 0.00024078148 -0.0006465484 -0.0014749728 -0.00067635695 -0.00095373474 0.00011448689 -0.0014864189 -0.0012257989 -0.00012751685 0.00090383424 0.000953373 0.0010561695 0.0015152477 -0.00023196214 -0.001320597 0.0011272157 -0.00092982856 0.0014463101 0.000610623 -0.0004887668 0.0015326944 -0.0010214036 0.00045111537 0.00025544676 0.0009775562 0.00016604691 -0.00041983576 0.00031243532 -0.00089777965 -0.0010338861 -7.647046e-06 -0.0007010214 0.00095889135 -0.0014049782 0.0007478577 -0.0014915308 1.0300103e-05 0.00068486156 0.00087342865 0.0014203043 0.0014354059 0.00054738694 -0.00016316428 -0.0012641315 0.0011284937 -0.00060397136 -0.0015797793 0.00090999604 0.00038887028 -0.00076471356 -0.0005369877 -0.0010484526 -0.0011005163 -0.0010566909 -0.0012374991 0.00016542505 -0.0013994524 0.0015591867 0.0015345392 -0.00016734391 0.00074232224 0.001026022 -0.0012132685 0.0014615646 0.0013603084 0.0002567196 0.00085103035 0.0001574873 -0.00069686293 -0.0013338065 -0.0005438563 -0.0010898829 -0.00030782085 0.00072300725 -0.0010034357 0.00032800168 0.00019746208 0.0011196007 -0.00097315386 0.0006355837 -7.95561e-05 -4.8633934e-05 0.0014264602 -0.0015135834 -0.0014233912 0.00043311343 0.00053025235 0.00075195014 0.0001413779 0.0008882893 -0.0014124558 0.00050472334 -0.0015339376 0.0013609558 -0.001320148 -0.00015717617 0.000259895 -0.0004888464 0.00027045392 -0.000566065 -0.0013351131 0.0010762578 0.00074664905 -0.00090951734 0.00011155294 0.0007400937 0.00052987074 -0.0009475875 0.000782396 0.0006912843 -0.0016584956 0.00010945326 0.0008339105 0.00068922347 0.0005112206 0.0007475665 0.00051382475
ginni 0.00057479943 0.00052241475 0.00035224127 0.0015815389 -0.0010458704 0.0012054113 0.0016019647 0.0006486428 -0.0011250699 -0.0014632924 -0.0010877663 -0.0009781073 0.00073127804 0.0008968724 -0.0013419747 0.00031969193 0.0001592775 -0.0010980444 -0.00062439736 -0.0012260476 -0.0008061992 -0.0008666196 0.00014820116 0.001212252 0.00041230908 -0.00013511619 -0.0007692087 -0.000759252 -0.0007220513 0.0013462144 0.0012659675 0.0010277113 0.00073944154 0.000818627 -0.0007588645 0.0010189783 0.00020557828 -0.00089027453 -0.0015175443 0.0014243968 0.001208424 -0.00028402018 0.0016133195 0.0014656914 -0.0013033852 -0.0011446206 0.00052524346 5.1632807e-05 -0.00020349342 0.0010732929 0.0011967999 0.00035391044 -4.068444e-05 -0.0011817433 -0.00056494394 0.00012689708 0.0008917675 0.00066082185 0.0003299853 0.00030327024 0.0002492101 0.0015037529 0.00019996082 -0.00035636636 0.0014875457 0.00089440466 -0.00036525246 -9.321349e-05 0.00012202042 0.0010134638 0.0013375584 0.0009200665 0.0006039632 -0.00047689452 -0.00015265626 -0.00024980653 0.00015448655 0.00070541946 0.0010371053 4.3048723e-05 -0.0013931213 0.00024699204 0.00051473256 9.933547e-05 -0.0016126431 0.0012778223 0.0009766426 -0.0009627232 -0.0012816839 0.0011607348 -0.0016492731 -0.00014190935 0.0011122758 0.0006104064 -0.0016546046 5.4367315e-06 0.000378306 -0.00069698325 0.0014425092 -0.0007014585 -0.0007242869 -0.0006758892 -0.00073257764 -0.0010970671 -0.000566815 0.0009153008 -0.0010538549 -0.00023871005 -0.00027525926 0.00085629267 -0.00020965458 0.001435854 -0.0010116742 0.0014259851 -0.00091772527 0.0006236479 0.00016091003 -0.000853225 -0.00030595137 -0.0002683911 -0.0003791328 0.0011071318 -1.3865556e-05 -0.00035284384 -0.0016066157 0.0009608724 -0.00011940105 -0.0016168637 -0.0009826131 0.0016456248 0.0013947646 -0.0014763114 7.395913e-06 0.00044902664 -0.0013110021 0.0012286209 0.0013081589 -0.0006216733 0.00055507506 0.0009185731 0.00039156873 -6.0966754e-06 -0.0010080907 -0.000263456 0.0011193922 5.2769767e-05 0.0016574888 -0.00014877808 0.0014297168 -0.00011445472 -0.0006662566 0.0009160623 0.0015109217 -0.0001472057 -0.0012458512 -0.0007532272 -0.0011056317 0.00038544447 -0.00027689413 -0.0007137498 0.0011200708 -0.0009102802 0.0011105358 -6.8138725e-05 -0.00012549864 -0.0006817877 0.00084135926 0.0008259848 0.0006509612 0.000938913 0.0006760418 0.0008358243 -0.00024121809 -0.00050193974 -0.0011153151 6.6981804e-05 0.0013493344 0.00088281074 -0.0005316539 0.0013019574 0.00090510614 -0.0007728125 -0.0007449325 -0.000795407 -0.00016997285 0.0007848444 -0.0011261316 0.0006371821 0.0013154238 -0.0004134678 0.00045221095 0.000619418 0.0003698528 0.0010687561 -0.00010763223 0.000182262 0.0013354777 -0.00094562187 -0.000509991 -0.0014141483 -0.0007276684 -0.0010403277 0.0015895369 0.0003552624 -0.0010859472 0.00076906796 -0.0008088047 0.0009565323 0.00028428552 -0.0016494734 -0.0015292213 -0.0011339892 0.00048682484 -0.00014080883 0.0008821017 -0.00042391266 0.0015679764 -0.0014268369 -0.0015214443 -0.0012605223 -0.00084952434 0.0005124647 -0.00013130222 -0.0004098514 -0.0007629735 -0.00033271685 -2.0426063e-05 -0.0007379465 -4.2734546e-06 -0.00068073225 -0.000534499 0.0011671929 0.00094247796 -0.0013099146 -0.00040455343 -0.001278983 0.0012994898 0.0016069665 0.0009749853 0.0014580068 0.0015428612 -0.0003883384 -0.0015607938 -0.00038936798 -0.00021826658 -0.00015030337 0.0008329399 0.0009167207 0.0015685684 0.00091911753 0.00067096 0.0015207863 -0.00016027948 0.0012585862 -0.0011849967 -0.0012183785 0.0007083933 0.00014833956 -0.0009319415 0.00072468293 0.00036394177 -0.0011653951 0.00031043452 -0.0008954152 5.433761e-06 -0.00037249888 -0.001615188 -0.0013984436 -0.0009809369 0.0004567822 -0.00046625794 -0.0013423797 -9.670826e-05 0.00068515906 0.000697132 0.0008661367 -0.00080042187 -0.0006472825 -0.00034014118 0.0004901916 -0.00044705733 -0.0004767692 -0.0011286372 0.00029129128 -0.0009821868 0.0006222723 0.00041586923 -0.0014792208 0.00045984724 -0.001270127 -0.0007738334 0.00059772417 0.00015485704 -0.0002804353 -0.0014646415 -0.0006121639 -9.7857745e-05 0.00020210104 -0.0009477753 -0.0004444831
chatrath 0.0003147106 -0.0015535563 -0.0016417739 -1.3766117e-05 -0.0010018583 0.0011718159 -0.0005414366 -0.0006281848 -0.0013565331 0.00021618935 -0.0011011316 0.0016429852 0.0010537631 0.0013626382 9.6518845e-05 0.0006479451 0.00083388697 0.00015520769 -0.00074063096 -0.0014121961 6.0824263e-05 -0.0015884355 0.0013707739 -0.00080885884 0.0003888307 -0.001499582 -0.0007775825 -0.00019702366 -4.0155363e-05 0.0014243592 -0.0012029863 0.0012149783 -0.000515294 -0.0007640194 -0.00068798533 0.00068171695 0.0016400338 -0.00039655977 0.0005850618 -0.00015303303 0.0010078129 -0.0013301432 -0.0009856051 0.0005642758 -0.00074735173 0.00080125727 0.00067845243 -0.0005348975 0.00016289731 -0.0015609385 -0.0010549525 -0.001450015 -0.0012200967 -0.00076958863 -0.00035160582 -0.0012224572 0.0003832824 -0.0012993108 0.001319839 -0.00031210957 -0.00021432723 0.00036925665 -0.0006068658 -0.0002549916 0.0013156234 -0.0007436011 -0.0010728694 0.0012442638 0.00036624106 -0.00039964542 -0.0013681084 7.083003e-06 -0.001459986 0.0003304044 0.00047333527 -0.0010746005 -0.0013400022 -0.0015009181 -0.0007645907 -0.0006668909 0.0015294796 -0.000390179 -0.0014819534 -0.0011904206 0.0013868476 -0.0011224161 0.0014997096 -4.056157e-05 4.672436e-05 0.0008266076 0.0006722414 -0.0006480589 -0.0010580955 0.0016179619 0.0006268098 0.0005626528 0.0007625052 -0.0012300488 -0.0015966133 0.00048410034 0.00027530544 0.00029502393 -0.00020000647 0.0006690821 -0.00041031776 -0.0013304544 0.0012637939 0.00085487415 -0.0009960453 -0.0013487092 0.0014036976 0.00046294814 -0.0002471831 0.00093789573 0.0006818014 -0.0016105031 -0.00084989495 -0.00020525431 0.00076787506 0.0012469188 -0.0015027694 -1.20777095e-05 -0.00088295003 0.0016542124 -0.0010211711 -0.0008887298 -0.00019519805 0.0012261831 -0.000744154 -0.0005865426 0.0009131101 -0.00055176974 -0.0011103136 -0.00027954043 0.0011024583 0.0010427614 -0.0004237618 -0.00037449764 -0.00022901568 -0.00084332784 -0.0016305196 2.06207e-06 0.00042141238 0.0011734944 0.0015042257 0.0008776294 -0.0014779116 -0.00023845212 -0.0004428984 0.0013869556 -0.00030628807 0.0010780939 0.0012834684 0.00010512778 0.0014790946 3.961911e-05 0.0012588244 -0.0011440051 0.00021311907 -0.0016415616 0.00011242247 0.0015845881 -0.0011492787 -0.00087106525 0.0012353294 -0.0015646642 0.0010071202 0.00076073804 -0.00045997804 0.00018155573 0.001001162 -0.00033338272 -0.00079021417 -0.0013586462 -0.00091239996 0.0008663309 0.00016025048 0.0011421603 0.0015268753 -0.00047046537 0.00127107 -0.0014421209 0.000825153 -0.0009758071 0.001278833 -0.0016259841 -0.0012162466 0.00022727699 0.0007561521 -0.0006080443 -0.0011025795 0.0006018187 0.0010692441 -0.0010606211 -0.0013674268 0.0007573363 -0.0008177465 -0.0005634228 -0.0012366122 0.00015673312 -0.00076946674 0.0006241679 0.00031811124 -0.0012253952 0.00029426842 0.00052929414 -0.00015456266 -5.6497203e-05 0.00030580413 -0.0013349331 0.0007325806 -0.0007685398 0.001118291 -0.00014562815 0.00073936314 -0.0003628682 -7.307228e-05 0.0011310478 -0.0002854601 0.0012983544 0.00072772946 0.00089607027 -0.00024872928 -0.0006536442 0.0011092866 -0.00019992093 0.0008610456 0.0010914245 -0.0005907472 -0.00066765473 0.0007929444 -0.001592156 0.0009391315 0.0008598713 -0.00050438667 -0.00020088034 0.00051408354 0.00085385947 0.0008505795 -0.0010723415 -0.0013009473 3.446758e-05 0.0009279269 0.00028559653 -0.0012269684 0.0006264003 0.00044692398 -0.0006740356 -0.0010437699 0.0013365459 -0.0005141132 0.0015335897 -0.00080711016 -0.000721036 -0.00082620844 -0.0011042828 0.00056989974 -0.0015865552 -0.0003114115 -0.00032386262 0.0012088163 -0.0013198808 2.3620298e-05 0.0005845848 -0.0011289233 2.9572846e-05 -0.00022423017 -0.0013806658 1.05996105e-05 0.00046197762 -0.00033448118 0.00047178648 0.0009682359 0.0014689186 0.0010517449 -0.00020320449 -0.0011496115 0.0016286002 0.00083732186 -0.0003962046 -0.0007498692 0.0014308889 -0.001615717 0.00085128704 0.00027242763 7.503208e-05 0.00062953593 -0.00045313354 -0.0006241399 0.0003918748 0.0006992259 -0.0015986688 0.0011934597 0.00046345478 -0.00073186884 -0.0003295876 -0.001275306 -0.0011672815 -0.0015135 -0.0010066284
padukone 0.0012484962 -0.001445305 -0.001164124 0.0013009922 -0.00065958 -0.001658591 -0.0010170094 -0.0002998042 -0.0011918017 0.0012697644 0.0015513116 0.0006827952 0.0002240889 -0.0003116434 0.0010336369 0.00041359317 0.0011867501 -0.0015957323 -0.00020406187 -0.001600673 -0.00057455496 -0.0012469202 0.0009624024 -0.0011172056 -0.0016180589 -0.00057410984 0.0015908675 -0.00073343347 4.967066e-06 0.001340498 -0.0013572046 -0.00028996187 -0.0016559998 -0.0013373954 0.0011714179 -0.0013497117 0.0010972949 -7.7212035e-06 0.0004381156 0.0013415639 -0.00094583957 -0.0015655563 -0.0013750156 0.0014027492 -0.00079012435 -0.0009073105 0.0008389693 0.0011315749 -0.00031900837 0.0004747512 -2.3494387e-05 -0.0010648108 -0.0007915927 -0.0016617358 0.0013981415 0.0009397968 -0.00041413054 0.0011260783 -0.0007886336 0.0006705266 -0.00020755276 0.0005733998 -0.00017703015 0.0010111821 -0.0009915768 -0.0016193903 0.0013331695 0.0012414558 0.0006818155 4.0837596e-05 -0.0016572922 0.0015827263 -0.0010066674 -0.0008190994 -0.0013276337 -0.0005973112 -0.00043669238 -0.0013447189 0.0011112264 0.001608079 0.0010054369 0.0011120123 -0.0012518369 -0.000110544475 0.0010831802 0.0010089063 -0.0011545204 0.00014687981 0.00021426773 9.680561e-05 -0.0015495343 -0.0012650226 -0.0008322622 0.0013206035 0.0011957226 0.00037756766 0.00028620064 -0.00017654784 0.00028066078 -0.0010731263 0.0014158564 0.0013457423 -0.0003238148 0.0006947195 0.0010654648 0.00041054786 -0.0008911384 -7.098646e-06 0.00017259702 0.0016400829 0.00096961274 -0.0013174661 0.0010826621 -0.0011333175 -0.0012541655 -0.001578422 -0.0010770477 -0.0007751085 -0.0006746383 -0.0014697652 -0.0016667079 -0.0016288918 0.0008716217 0.0016211664 -0.00017540672 -0.0014103228 0.00031736487 0.0016156456 0.0014861629 0.00058020116 4.4642147e-05 0.0013863568 0.00079955 0.0011211243 -0.00039349386 -0.0011642043 -0.0009410317 -0.00053855823 -0.0016066416 -0.00016046167 -0.00048146414 -0.001119894 0.0015139715 0.0006077573 -0.00069827423 0.0016135867 -7.466807e-05 -0.00076110516 0.0015486238 -0.0009235604 0.0008910406 -0.0014877087 0.0013048018 0.0014865538 0.00081645814 -0.00097163225 -0.0016033306 0.0008425668 0.0011998434 0.0010579141 0.0007539123 -0.0015474784 -0.00095213164 0.0009764462 0.00030891792 0.0008817239 0.0013272536 -0.00075927895 -0.0012405297 -0.0007147431 -0.0011921341 -0.0016266062 -0.00074554264 0.0014871645 -0.0008867436 0.00027929607 -0.0006045009 -0.0016449698 0.00094227056 -0.0006709484 0.00034184038 0.0011367833 -0.00061769225 -0.0012101873 -0.0012257696 0.00015808363 -0.00013451533 0.0013780638 -0.0005858479 -0.0010840134 -0.0003414177 0.0014589382 0.0016607805 -0.00045394106 -0.0009786524 0.0009700544 -0.00058451697 0.00090269634 0.0014604524 0.001181217 9.162435e-05 -0.0003833787 -0.00079764787 0.00035454042 0.0006461108 0.0016565712 0.0006218202 -0.00024175705 -0.0015047881 -0.0014327124 0.00017237327 0.00011784119 -0.0011865457 0.0007781449 0.00091473863 -0.0003499762 -0.00027829493 -0.00040672245 -0.00065746665 -0.0012036901 -0.00019463392 -0.0011067127 -0.0016325694 -0.0008764232 0.0014256277 -0.00074894784 -0.0008149164 0.00023128894 0.0011870282 -0.0010734056 0.00046225716 -0.0008483749 0.0016619222 0.0007701552 0.0011950652 -0.001176238 -0.0011097438 0.00090148044 -0.00028931824 0.0010195399 0.0006237179 -0.0007592057 -0.0005066129 0.0015604886 0.00032651232 0.0008951656 0.00013817243 0.0003841544 0.00044375175 0.00096726953 -0.00042182265 -0.0006959309 -0.0016666376 0.00029606762 0.000853348 -0.00025915357 -0.0015376271 0.0015110264 -0.00075685995 0.0012289748 0.0010327584 0.00027214878 -0.0016138251 0.0010035328 -0.000946533 -0.0008356159 0.0014251611 0.00032594826 -0.0014924358 0.0006890896 -0.0014788251 -0.0014040689 -0.0016658395 0.0007237522 -0.00078685797 -0.00026658713 -0.0016345279 0.0010475445 -0.0002669246 -0.0015876102 0.00041362213 -0.0011990999 0.00011856256 -0.00039205517 -0.0016462827 0.00058225426 0.0005749655 -0.00029701495 -0.00019119772 -0.00083432405 -4.5514458e-05 0.00073470373 -9.605241e-05 0.00031096817 0.00031709837 0.00045113594 -0.0005746859 -3.0273945e-05 -0.00045943735 0.00046416416
singh -6.0025526e-05 -0.0001831598 0.00043382333 0.0006629442 6.74641e-06 0.00057736324 0.0016266983 -0.001631719 -0.0002957159 0.0009091998 -0.0011899549 -0.0014033309 0.00091709883 -0.00035959206 -0.0002887803 -0.0014840218 0.00037091717 -0.00045918408 -0.00033864303 0.0014178817 0.0007453457 -0.0014299063 0.00050392793 -0.0002047011 0.0015068771 0.00010626872 -0.0011269965 0.00032908225 -0.0008240568 -0.0009313271 4.518045e-05 0.0008187594 -0.00015171422 -0.00048235257 -0.0002873803 0.0013260454 -0.0011526262 -0.0011820466 0.00034837288 -7.64062e-05 0.00058028335 -0.0010794319 0.0011981193 -0.0015898629 0.0008903904 -0.0016526107 0.0008151414 -0.00010173825 0.00030559525 -0.0013646054 0.0011001 -0.0015513897 0.0013984619 0.0012251794 -0.00077550375 -7.207145e-05 0.00047577807 -0.0007965208 0.00088430865 0.0002953996 0.0009536174 -0.0003896164 -0.00048521024 -1.6659618e-05 0.0008537847 -0.0005542544 0.0005449637 -0.00040844886 -0.0016365666 -0.00057176733 0.00036074605 0.0015999813 0.0014702734 -0.0008929869 -0.001046067 0.00060970057 0.0003097612 -0.0009059188 -0.00038832298 -0.00012675535 0.0014625085 0.00046063584 -0.0010388995 -0.0013381203 0.0008061383 -0.0010282693 -1.018399e-05 -0.0015836392 0.0007679301 -0.0002083176 0.0011278994 0.0011801646 -6.643744e-05 -0.00031647543 -0.000992643 -0.0012449445 0.0002441683 -0.0014585339 -0.001300796 -0.0012655858 7.139225e-05 0.0006789228 -0.001567287 -0.0014277373 -0.00095618155 0.0013620327 -0.00014735761 -0.0013520719 -0.0016181795 0.001100338 -0.001117203 -0.0004457252 -0.00044200674 -0.0007602862 0.0005696855 -0.00071176037 -0.0012219767 -0.00039852402 0.0010267398 -0.00050723995 -0.000988493 -0.0011517608 -0.0011381187 0.00073807646 -0.0014112047 4.5144472e-05 0.0016376775 -0.00024154651 -0.0009843118 0.0008446969 -0.00019488037 -0.0005661735 9.793014e-06 -9.428279e-06 0.00012451394 0.0009648072 -0.00017512648 -0.0009727796 0.0011821369 -0.00029264213 0.00052587583 0.0008856186 0.0014911151 0.0013862277 0.0008202617 -0.00058723206 0.00093901914 0.00061258813 0.0011855599 -0.0016314933 -0.000744944 -0.00084479334 0.00074298534 9.048992e-05 0.00022688415 0.0005320482 -0.0013216116 0.0012529783 0.00089411956 -0.00052828185 0.00061739254 -0.00072171434 -0.0010192266 -0.0004578385 -0.00080407003 -0.0012143253 0.001353716 -0.0011095155 0.0013031431 0.001299439 0.00097444566 -0.00052522233 -0.0014387575 -0.0008121319 -0.00097091286 -0.0016268062 -0.0016628414 0.00082176545 -0.0007295227 -0.00012030923 -0.00027796146 -0.0015913174 -9.413632e-05 -0.00021530816 -0.0015570124 -0.00022763904 -1.2639983e-05 -0.00069991837 -0.0011589667 0.00055672607 0.00062270433 -0.001394059 0.0011779929 0.00037952446 -0.0015425208 0.00068278855 -0.0011470891 -0.0009321896 0.00065897644 0.00156014 -0.0010189051 0.00077793293 -0.0014238209 0.0010025703 0.0014017179 0.00037640042 -0.0012264408 -0.00028133407 0.00084244093 -0.0012661434 -0.00048136304 0.0014907222 -0.0016246599 0.00082864694 0.00085186365 -0.00083665235 -0.0015517517 0.0005127477 -0.0010556914 -0.0005457159 0.0006579889 0.0007894858 0.00011802968 0.0016712545 -0.0005292316 0.0011341235 0.00016146814 -0.0003046945 -0.0013060658 -0.00150039 0.00012584476 0.00010004159 -0.0005668667 -0.0008899927 0.00044287395 0.0015300092 -0.0015400011 -0.0005872044 -0.00080471684 -0.00092428847 -0.0012916351 -0.0011224969 0.001556578 0.0005032107 -0.00028880668 -0.0007480649 0.0008583302 0.0009698873 0.0014599309 -0.0003767388 -0.0014129455 8.2553306e-05 0.0012354281 0.00029650683 -0.0015461036 -0.0009367271 -0.00058740925 0.0008252748 0.0015755846 -0.0012479645 0.0010549056 0.00088936865 0.0004369841 0.00040970667 -0.001519044 0.00078890804 0.00063902355 0.001323232 0.0010490593 -0.00012719489 -0.0005948439 -0.00023608768 -0.000620487 0.0012456897 0.00037856368 -0.0010961784 0.00063387933 -0.0001215588 -0.0011160054 0.0007429686 -0.0015198307 0.0010927998 0.0002624309 0.0016408524 -0.0015978024 -0.0009926158 0.0012779051 0.00084960466 -0.0011246364 0.0005390598 0.00058367767 0.0010471268 0.0015128494 0.0009949708 -0.0011729659 -0.0007157356 -0.0015578415 -0.0011856199 0.00096539815 0.0013624069
2018 -0.00068705855 -0.001082377 -2.5994827e-05 0.000975703 -0.00044148814 -0.0009968774 -0.00068687554 -0.0010630437 -0.00027030974 0.00091465324 -8.0987076e-05 -0.00052096305 0.0006635578 -0.00039836921 0.00017856881 -0.00052859384 -0.0010756461 -0.00066837657 -0.0010325889 -0.0016296403 -0.0013345472 0.00018767809 0.0005067353 0.0016124953 -0.00058386463 0.00027041844 -0.00083487266 -0.00050112844 0.0014501886 -0.0003967493 -0.0010533485 -0.00082981854 -0.00037179343 -0.0011459112 -0.0014800379 0.0015884476 -0.0015522087 0.00027468108 -0.00014261156 -0.00050213165 -0.0001220469 0.0014488687 -0.00018170386 0.001650929 -0.0012953997 0.0016408731 0.0013414347 -4.869375e-05 -0.0009939304 -0.0012371686 0.0014628309 7.313146e-05 0.0006426746 -5.339745e-05 -0.0012257799 -0.0014965371 0.00012124193 -0.00060502504 0.0012253346 -0.00054229563 -0.0007595475 0.0012212108 0.0010755331 0.0006961702 0.0002460446 -0.0015426546 -0.00041027294 0.0014525526 -0.0002367816 -0.00028794265 -0.0007616125 0.00010475915 -0.00035049111 -0.0009825737 -0.00031869762 4.2711716e-05 -0.001019751 0.0014027855 -0.00082250324 -0.0007253765 0.0011126957 0.0003661967 -0.001054227 -0.0009517597 -0.000116961586 0.001575673 -0.0010807925 7.643986e-05 0.00032144235 -0.00080995844 -0.00051696703 0.0010646768 0.0015041045 0.0011920254 0.00028368525 1.2151552e-05 0.0012730311 0.00091518136 -0.0015926812 -0.0009512793 0.0010678271 -0.00067366083 -0.0005892189 0.0015085861 -0.00050868874 -0.00041870555 -0.0009832312 3.9923492e-05 -0.00031194117 0.0014139721 0.00027689396 0.0015140779 -0.00034321076 0.00091981457 0.00096479553 -0.00045962524 -0.0010913726 0.0012376853 0.00097552774 0.0014589331 -0.0008272756 -0.0010779974 -0.0016138157 -0.001366683 0.0016110068 -0.00015447244 0.0012515625 0.0009007635 -0.0015354872 -0.0001629719 0.0008317368 0.0013684477 -0.0005299983 0.0010204338 0.0014923905 -0.0013856445 -0.0011139044 0.0013781745 0.0013075132 0.0005952035 0.0007810462 -0.0008407069 0.001322362 -0.00071537885 -0.000885902 0.0009841942 -0.001555735 0.0014927504 -0.0007748089 0.0013457905 0.0005654963 0.00029704723 -0.00016672844 -0.00020019748 -0.00018309832 -0.00083708373 2.0907639e-05 0.001122386 0.0011619076 -0.0002365743 -0.00044449678 -7.110467e-05 0.0009513712 0.0013113235 0.00032264096 0.0012816633 7.853458e-05 3.7188285e-05 0.0007091493 -0.0006528324 -0.000691475 -0.000731295 -0.0015246692 -0.0002441523 0.00048314474 8.703908e-05 -0.0009938605 -0.0008204352 -0.0014982254 0.0014288772 0.000685765 -0.0016232322 -0.00018016333 -0.000716773 -5.1247305e-05 -0.00089072133 0.00066433684 0.0015174362 0.0009668897 -0.0013432867 -0.00038792298 0.0015732418 0.00011977469 0.0011602186 -0.0014422208 0.0010462172 0.0015114467 -0.001132182 0.00036232112 -0.0004160071 0.0011149643 0.00035002097 0.00036227755 -0.0001105769 0.000291706 -0.00040821047 0.000113501716 -0.0005452126 0.0009250063 -0.0009352051 -0.0014153549 0.00043178757 -0.00028578052 0.0007839216 -0.0014746705 0.001193098 0.00063138676 -0.0015891704 0.00050653866 0.0011434137 0.001160103 0.0013294818 0.00012175626 0.00037537175 0.00011371368 0.0014975723 -0.0010593621 -0.001035823 -0.00016599838 -0.0011019428 -0.0006693392 -0.00096768915 -0.00036659115 0.0015189276 -0.00060700794 -0.0007611364 0.00023198442 -0.0012726025 0.0015582582 -0.00022498965 -0.0013063068 0.0004974035 0.0011404809 -0.00054585445 -0.00063839776 -0.0001825851 -0.00019340185 0.0007430738 -0.00058776786 -0.0002689346 0.0003341114 -0.0013639281 0.0015952528 -0.00030614855 -6.191338e-05 -0.0009346979 0.00061765884 -0.0012279933 0.00048357915 0.0010265505 0.0015943339 -0.0015984619 -0.00086425326 -0.00014734083 0.00071365945 0.0011883231 -0.00041448214 -0.00020883622 0.0016412024 -0.00022723567 -0.0015889158 -0.0015248347 0.0015671677 -0.0008895645 0.0010920777 -0.00075300894 -0.00030588126 0.0010792653 -0.0009023209 0.0014299976 -0.00046606638 -0.00046456547 0.00042484084 8.7841625e-05 0.0005686937 0.0008212344 0.001086203 -0.0014724687 0.0011958112 -0.00057091593 -0.0005234526 -0.000992617 0.0016188825 0.0013161262 -0.0008136187 0.0002884672 -0.0009532036 0.0014090801 0.00078452955 -0.000986746
also 0.0006757767 0.00081895746 0.0004869946 -0.0010104302 -0.00014080855 0.00046877374 0.0003284423 0.0006507565 0.00054041244 -0.00016455412 -0.0014393305 -0.0007031251 -0.0012544896 -0.0009677791 0.00013782963 -0.0012780295 0.00071236095 0.00061375496 0.0014789961 0.00023299595 0.0014574234 -0.0008449632 0.0014389197 -0.0008417649 -0.0009627586 -0.000706907 0.0008078957 0.0012058129 -0.0009417472 0.0012380905 0.0006295866 0.0006237094 0.0010572304 -0.0002824857 -0.0015609786 0.00023385957 0.00028468212 0.00015569682 -0.0016465146 0.00059170154 -0.00019185894 0.00066954596 0.0007684164 0.0008885707 -0.00028506978 0.00064671884 -0.001166148 0.00060192903 -0.0005117409 0.00066189177 0.00026349956 0.00051483524 0.0013040182 -0.0008258557 0.00082475005 0.00055920234 0.00036653806 0.00018061977 -0.0013091511 -4.6730995e-05 0.00068436353 0.0001388228 -0.0005677446 0.0007959022 0.00035990242 -0.0015590842 0.00044852702 -0.00030165698 -0.0004264542 -0.00023846205 0.0011101632 -0.0014139401 -0.0012019322 0.00048013046 0.00064295006 -0.0012802797 0.0016320677 -2.6678443e-05 0.0009440651 0.0008908484 1.7837325e-05 0.0007324005 0.000984095 -0.0006599754 0.0011546753 0.0015383859 -0.0004199453 -0.0015090936 -0.0015293476 -0.0013086251 0.00017739955 0.0009672478 -0.0006115666 -0.0015509134 0.0012892558 -0.00066114863 -0.0004852392 0.00088716106 0.0011493164 -0.00084386766 -0.00083228777 -0.0010874544 0.0012276772 0.001395362 -0.0013445342 0.0010410924 0.0014232178 -0.001319184 -0.00064259145 0.0013241554 0.0010407582 0.0012569015 -0.0009778506 -0.000622156 -0.0012286344 0.00030332324 0.0004918111 -0.0012015856 -0.0016201717 3.0993466e-05 0.0014563787 0.0013234472 0.00073849724 0.0012761831 -0.00080851204 0.0012994086 -0.0003546287 -0.0007907175 9.768266e-05 0.0008142147 0.0012226821 -0.0015472148 -0.0011312681 0.00036036465 0.00054197403 0.00067870674 -0.000604541 0.0011807836 -1.2029617e-05 0.00056908786 0.00095344184 5.286814e-05 -0.0002627298 0.0009983345 0.0009002931 0.0012857853 0.0007316825 -0.0008714339 -0.00047994615 0.0014557169 -0.0006694282 -0.001338957 0.0010635627 -0.00018848486 7.846226e-05 -0.00021528761 0.0016182356 0.0011367889 -0.0015677315 0.0012435445 -0.0013444789 -0.00012725894 0.00026249394 -0.00027037674 -0.0016416935 0.00060023257 0.0013341171 0.0010199532 -0.0005748133 -2.6888063e-05 -0.0009508072 6.518241e-05 0.0009007238 0.0010362803 -0.0015675001 0.00086176454 0.0007629537 0.0007553281 0.0012217329 -0.00027705717 0.0007611771 -0.00045651573 0.00020763002 0.0005863329 0.0013418677 -0.0015343777 -0.00080267503 -0.0016145252 0.00021751242 -0.0012354946 0.0012077381 0.0012613452 -0.0015036863 0.0011410648 0.0007974 -0.0010399295 -0.00014361834 0.00072832813 -0.0012044979 -9.5293966e-05 0.0016339718 0.0016644726 0.0015215103 0.0005572384 0.00039026845 0.0002713921 -0.0009225195 0.000237892 -0.00091768824 0.0008955476 0.00033086736 0.0016344673 0.00015517736 -0.00015074463 0.00043729067 0.0010388697 0.0013054677 -0.0006904046 -0.00012756094 -0.00045164963 0.00089431304 0.00015131707 0.0016393653 -0.00036310442 0.00030562017 -0.00042319146 0.0016537679 -0.001058653 0.0015160132 -0.00013060038 -4.486594e-05 -0.00016847336 0.0011822759 -0.00017103789 0.000393449 0.00014127427 0.0010564747 0.0006794557 -0.0010938451 0.0013333675 -0.00018670323 0.000104528655 0.0010861993 -1.2891575e-05 0.00019445564 0.00075371476 -0.00072125316 0.0015671126 0.00035728177 0.0011374974 -0.0014017542 -0.000114816256 -0.0010090803 -0.0008933085 -0.0009279164 -0.0012371531 -0.0011566129 -0.0006314644 -0.0014963492 -0.0013141931 0.0013716944 0.00015107439 -0.0015717936 -0.0005351484 0.00024121607 -0.0006693952 -0.00059749105 -0.0003320429 -0.0007189701 -0.00049181515 0.0014553706 0.0016625157 -0.0016651085 0.0008740654 -0.0001334716 0.00040280804 0.0005099907 0.001502642 0.00044552496 0.00012102445 -0.0014754185 0.00077249616 -0.0008080593 -0.0009692972 0.000597318 9.21912e-05 0.0010289494 -0.0011202956 0.0016510385 0.00046775967 -4.1950923e-05 0.0011585862 0.0014586267 0.00031331604 0.00038854402 0.0008803985 0.00028998035 -0.0011033395 0.0012130515 -0.0013181138
from -0.00019915016 0.0013430597 0.0006130728 -0.0004663701 -0.00025726936 -0.0008553041 -0.00035449478 -0.0011311657 -0.0013571399 0.00025408578 -0.000111775116 0.0001880126 -0.0013960472 -0.0006235748 -0.00035577177 0.0007250618 0.00031223815 0.0002911829 0.000539094 -5.497975e-05 -0.0002034189 -0.0009817437 0.0012391605 0.00097158103 0.00076211744 9.3179806e-05 -0.0005650728 -0.0016376104 0.0014679986 -0.0010550629 0.0010342075 0.0013877494 0.00018422276 -0.0013781207 0.0012836567 -0.0005465045 3.4789857e-05 -0.0004889169 0.0015400186 0.00039144405 -0.00033048156 0.0007552641 -0.000532808 0.0016678848 0.0012844525 0.00014357106 -0.0015795681 0.0014320876 -0.00053190487 -0.00057972636 -0.0005446259 0.0007572283 -0.001159609 0.00040359414 -0.0013537279 -0.000691682 0.0007163257 0.00053609145 0.00071426795 0.0014486453 -0.0009976482 -0.0003486534 -0.0013803132 -0.0012501876 -0.0010678213 -0.00064237305 -0.00017729327 -0.0010701976 0.0004467445 -0.0013172118 0.0010003323 -0.0016439139 0.0009801479 -0.00064144126 -0.0014947084 -0.00013059449 -0.0012587963 -0.00069225155 -0.001483516 0.00060318306 -0.001142013 0.0009056636 -0.00069527247 0.00025623888 -0.0005323621 -0.001229892 0.000209721 -7.728347e-06 -8.448913e-06 -0.0009330372 0.00095746457 -0.00074661017 -0.00041319133 -0.00084380456 -0.0004015197 0.0004549665 -0.000108585526 -0.0002781183 0.0014856869 0.0003983816 -4.2962783e-05 -0.00017787832 0.000524175 0.00046737815 -0.00010886242 0.0010634102 -0.0015374236 -0.0007874828 -0.00031084544 -0.0016441874 -0.00070688815 -0.001560333 2.1152659e-05 8.478663e-06 -0.00073364686 -0.0011556138 4.1790317e-05 -0.00038237032 -5.80322e-05 0.0014482893 0.0009626062 0.0008848568 4.074647e-06 -0.0004394724 -0.00069403567 -0.0005529001 0.0006369221 -0.00020906045 0.00094569253 0.00079435506 -0.00045659713 -0.0014674228 0.00088513125 -0.0015816953 0.0004887114 0.001487529 0.0013576917 0.00046569307 0.0004225356 0.0016425869 -0.0015540824 -0.001210099 0.0013980657 -0.00013467492 0.000911191 0.0011738092 -5.9270827e-05 -0.00043268903 -0.0015608023 0.000190945 0.0011456276 -0.0010787006 -0.0003789377 -0.0004576023 0.0011822841 -0.00033328816 -0.0005224386 0.0006057893 -5.0290106e-05 0.0012869404 -0.0016589774 -0.0008967117 -0.00050477026 0.0004455933 -0.0010219072 -0.001629795 -0.0013841696 -0.0007688158 -7.257224e-05 0.0009861835 0.0014253886 -0.0011594661 0.0013902354 0.0012223021 -0.00044633297 0.0012295812 -0.0015066973 -0.0010376215 0.00073578313 0.0007116122 0.0007068471 -0.0009293695 0.0014712581 0.0014105235 -0.0010768189 0.0004488858 0.0012837293 -0.0007393049 -0.0013236075 0.0008922282 0.0010569077 -0.0015786762 0.0007802937 -0.0015739725 8.2926344e-05 0.00067346956 -0.0004658193 0.0014065944 0.0006730039 0.0014294067 0.0011680438 0.0010501476 0.0010302427 0.0014129604 -0.00044460662 -0.0006839814 0.0015103158 -0.00053157646 -0.00078757264 -0.0009968142 -0.0007766436 0.001198 -0.00026759793 -0.00030143984 -0.00041597654 -0.00093527825 0.0003456509 -0.0010086121 0.00012438891 -0.00043670516 -0.00058118644 0.00018067495 -0.0011409104 0.0010226265 -1.6159713e-05 -0.0007246188 0.00032749126 0.00037835297 -0.00069157593 -0.00017257726 -0.00082624616 0.0012156356 0.00026127137 0.00027709964 0.0012767127 0.00020767907 -0.00028651435 0.0009812468 -0.000298437 0.0012634813 0.0011085205 0.00093421846 -0.00069498824 -0.00051896746 0.00029453647 0.00029207804 0.00042120542 0.0014813237 -0.0011982685 0.001172784 0.0014101363 0.001407348 -0.00015035781 0.0012744506 0.0011063818 7.363834e-05 7.0684015e-05 -0.0016636758 0.00024664783 -0.0006705409 0.00057880423 0.0014180806 0.0001868096 0.0007210391 -0.0012510519 0.0014083426 0.0012551154 0.0009243189 0.0010029064 0.001334493 -0.00058242894 -0.0010046441 -0.0011428456 0.00014293428 0.0015008291 -0.0010028174 0.00082643324 -0.00075516093 0.0012097355 0.0011941997 -0.00082712685 7.463812e-06 0.0012657465 0.001314315 -0.00078091107 0.000950751 -0.001069158 -0.0012368595 -0.00011856246 0.00029826112 0.0007766204 0.001263817 -0.0013807429 0.0016364538 -0.0008904011 0.00024239386 0.00027762513 -0.00053064246 -0.000895079 -0.00091258663
man 0.0014023792 -0.00065540196 -0.00097086804 -0.0002738296 3.458383e-05 -0.0010310229 -0.0014570842 -0.001348581 0.00024156184 0.0013907581 0.00032655324 0.0012020543 -0.0006516002 -0.0014989704 0.001179681 0.00050079013 -0.00068840187 0.0008566229 -0.001181746 0.00074651587 -0.00057484925 0.00082791265 0.0011505786 -0.0015242805 -0.0010975318 -0.0013815544 0.0008062103 0.0010714377 -0.0014396438 0.0011287726 -0.0012401167 0.000774894 -0.0015523566 -0.000998892 -0.0013215923 0.001166352 0.0010303507 8.059317e-05 0.0007787425 0.0013587937 -0.0016017898 0.0001336831 0.001117251 0.00097607967 0.0010531648 0.0015007936 5.620255e-06 0.0015250059 -0.0012479987 0.00041067207 -0.0011221843 -0.0016547006 -0.0004578445 -0.00029368687 -0.00045311503 -0.00068588764 0.000916236 0.0014557977 -0.0009029444 -0.00016612955 -0.0007964325 0.0013177149 -0.00052219967 0.001376284 0.00032421062 -0.0009077844 -0.00089696463 -0.00071476813 -0.00083353464 0.0006820924 0.0006452282 -0.0013380676 -0.0003116794 -0.000948601 -6.173685e-05 -0.00013704794 -0.00039775422 -0.0010952841 -0.00163401 0.0011569605 -0.000943794 -0.001558808 0.0015752852 0.0013636046 -0.0010699905 -0.0016314813 0.0007382206 -0.0014513151 -0.0015168306 -5.887963e-05 0.00071277603 -0.00048486333 0.00014527343 -0.0016395616 0.00038557153 0.0016446771 0.0004994802 -0.0004632221 0.00023833828 -0.00038727908 -2.248139e-05 -0.001153533 0.0008591644 0.0002391479 0.0012211651 0.0012672333 -0.00019261765 -0.00015316068 -0.00034944236 0.0014338504 -2.9453115e-05 -0.0016098002 0.00048289902 7.219403e-05 -0.00068609015 -0.00017088251 -0.00092231296 -0.0007309264 -0.0004557001 -0.0016551787 0.0014327008 0.0015668052 0.00040578356 -0.0012962859 0.00049725134 -0.0007526797 0.00014293907 -0.0014663714 0.0006768862 0.00017512197 -0.0012039978 0.00034285625 -0.0016118414 -0.00036089224 0.0015752448 0.00024982844 0.0013539545 -0.000920521 -0.0016456209 0.0007460998 -0.0014876155 -0.0006556673 -0.0014649996 -3.4511828e-05 0.0013554931 0.0004462649 -0.0013568747 -0.0003746223 0.0010982166 -0.001209098 0.0007888099 -0.0015380576 -0.000985636 0.00023278275 0.0014706957 0.0014881201 -0.0010933538 0.0015970584 -0.0011794621 -2.7120293e-06 -0.00019699105 0.0006490547 -0.00050550536 0.00022653495 4.9533297e-05 -0.00055192516 0.0010005892 -0.0009266722 -0.00045542416 -0.0014657549 0.00016716013 0.0013543954 -0.0011058138 -0.001055385 0.0007166528 -0.0006627905 0.00017065444 0.0010490067 0.0016153821 -0.0006791227 -0.0015600494 -0.0012331823 0.00028804885 0.00022170486 0.0011806404 -0.0005970617 -0.00068506453 -0.0012831402 0.0010510532 0.00034751944 0.0010700391 -0.00015002562 0.0012973635 0.0005548987 -0.001358592 0.0007618832 0.0015734489 -0.0001707423 0.0015285332 0.00054914644 -0.00015350587 -0.0011924991 0.0014043775 0.0014522122 0.001089201 -0.0005684676 0.0005101589 -0.0010370053 0.0011690939 -0.001611284 -0.0014404572 -2.2164731e-05 0.0014563275 -0.00012147607 -0.00012343492 0.001122605 0.00020435278 -0.00043577692 0.0003913809 0.0007518559 0.0010759564 0.0006533346 0.00073890784 4.0256567e-05 0.00020460207 9.147393e-05 -0.0007072832 -0.0012177454 -0.0010333746 0.0006172283 0.0004821081 0.0014989421 0.0010770783 0.0015011451 0.0010183165 0.00040348072 0.00071618124 0.0013672218 -0.0003319554 0.0002081213 0.0015663685 0.0012333188 0.0009877232 -0.001041131 0.000858758 0.00041280795 0.00041653492 0.001031428 0.0016005489 0.0013941542 0.0015474344 0.00024071838 0.0016172328 -7.349761e-05 -0.00082055974 4.9028968e-05 -0.0015389636 -2.6430833e-05 -0.00078848685 0.0006802202 -0.0013922466 0.00065750576 -0.0004328523 0.00041315204 0.0005196416 -0.0008360999 -0.0009363554 0.00071947085 0.0005288139 -0.00092566275 0.000429114 -0.00048402953 -0.0007644426 -5.5345616e-05 -0.0011376798 -0.00071945885 -0.00047148665 -0.0014291125 -0.0016665842 -0.0008183668 0.00026446505 0.0005680482 -0.00034525106 -0.0014153386 0.00048087753 0.0008826755 0.00015898139 0.0008086539 0.0007413875 0.0010475605 -0.0014905137 -0.0008632947 8.989169e-08 -0.0008901573 0.000764055 6.7190434e-05 -0.00051072874 -0.0005772552 0.001569321 -0.0013305716
isha -0.0011437242 -0.00056521763 -0.00027098972 0.00029661975 0.0014406109 -0.00032438993 -0.0012147923 -0.00071229157 0.0015592084 -0.0016433791 0.00069873 -0.00022495187 0.00032283767 -0.0011258074 0.0016566503 -0.0011185851 -0.0014794625 0.00021415109 -0.00018504229 0.001573388 0.0005002903 0.00021891663 0.0016637619 0.0014216215 9.53342e-05 -0.0008049714 0.00088162743 -0.0012524732 6.665792e-05 0.0005382235 0.001217777 0.0014049956 0.00047375387 0.0014749515 -5.2352894e-05 -6.0388673e-05 0.0013028185 -0.00040954183 -0.00073151675 -4.2726742e-06 0.000540338 -0.00035164616 -0.0007349704 0.0013654502 0.0014855538 0.0011965563 -0.0013927467 0.001085457 -0.0010766061 0.001075974 -0.0008940282 -0.001472035 0.00040709047 -0.00078062183 -0.0009347196 0.000118844575 -0.0013007962 -0.0013939196 8.034223e-05 -0.00082346983 -0.00020897799 -0.00031352328 0.0008787908 0.00012475997 -0.0007745376 0.0013421698 -0.0011441389 0.0015378626 -0.0014233293 0.0013859654 0.0016023357 -0.0013930527 -0.00080813665 0.00015904197 0.0015630974 -0.0014959376 0.00018584206 0.0010676322 0.001313644 -0.0005327921 0.0013362856 0.0009691788 0.00080149085 0.0007290864 0.0015281731 0.0015796826 0.00011575052 0.0011121049 0.00035533367 0.0009044825 -0.0015101181 -0.0014171983 0.0006797134 -0.0014753218 -0.001659994 -0.0015866889 0.00088050513 0.00096500065 -0.001520117 -0.001525364 0.0006255871 0.00035087336 -0.0012469131 0.00088300527 0.00073817314 0.00096926966 -0.0012940168 -0.000483551 0.001101889 0.0006810006 -0.0014435253 -0.0016270721 7.986919e-05 0.00036586815 0.00023567189 3.766481e-05 -0.0010287612 -0.0002493343 -0.00038936816 -0.00020805605 -0.00072492217 -0.0001677136 -0.001463261 -0.0013984143 0.00040359338 0.0012259274 -0.00034369496 -0.00024200784 0.0015217294 0.00023295548 -0.00030456518 -0.0013001118 -0.001657008 -0.00022444237 0.00090837985 -0.0013823296 -0.0012918492 -0.0006249467 7.379123e-05 9.620756e-05 0.0011148076 0.00010852538 0.0014335488 0.0015112789 0.0011372431 -0.0012930183 -0.0011821075 -0.00034553552 -0.00020139535 -0.000613165 -0.0014169891 0.0008295684 0.00075834704 -0.00046445834 0.0013121661 0.0010396529 -0.0010437649 -0.0011624802 0.0011776646 0.0014478987 0.00058607734 -9.271843e-05 0.00020725811 0.0016031923 0.0014212383 -0.00089599856 0.0008850993 0.0010288974 0.0005215115 -0.0014543992 0.0006888043 -0.00083819637 0.00021992569 1.42488825e-05 -0.0010443763 0.0015370892 0.0002877349 -0.0009490173 -0.0007101709 -0.0012465199 0.0011222888 0.0008225171 -0.0012217152 0.00078913756 7.7537494e-05 -0.0002972675 -0.0008340743 0.00037663235 0.0008968084 -0.0013954666 0.0012136586 6.736783e-05 0.0008920859 0.00048716308 0.00073555915 -0.00090787705 0.0011076736 -0.00014805765 0.0005086678 0.00015428948 0.00018939006 -0.00117104 0.0005221039 0.0006231071 -0.00034067736 -0.0005168855 -0.00048387118 0.0014981969 -2.0746133e-05 -0.0007732236 0.0010495394 0.001291906 0.0013192563 -0.0008559517 -0.0008990134 0.00076483085 -0.0006661562 -0.00062728976 0.001078524 0.00043900302 -0.0004234651 0.001434172 0.0008529789 3.471837e-05 -0.000561215 -0.00081805396 -0.00014803607 0.0006657451 0.0005659016 0.0013428316 -8.486493e-05 -0.00030946944 -0.0013653851 0.0016557965 0.00014367033 0.00089085044 0.0003797414 -0.00019546722 9.262024e-06 -0.0013296317 -0.00017007613 0.0005401683 -0.0012313821 0.0012116903 0.0016115139 0.000119596196 -0.00021462007 -0.0010632629 -0.0014039401 -0.00030299096 0.00013996531 0.0008212544 -0.0012135062 2.0238362e-05 -0.00078360515 -0.0014744337 0.0013468615 0.00023054903 0.00023577073 -0.0016609639 -0.0012879209 -0.000846115 0.0003444541 0.0011840108 -0.00090393284 0.00011657399 -0.00078720367 -5.2861113e-05 -0.00084231555 8.9215224e-05 0.000958274 -0.0010471636 -0.00064934423 0.0006750868 0.000675314 -0.00045103367 0.00019490767 -0.0013187615 -0.0011458875 0.00076321745 0.0013894292 0.0011690196 -0.0016316298 -0.0014522499 0.0011316158 0.0009900864 0.0010034037 0.00088923465 -0.00019942627 0.0002804493 -0.0015792017 0.000110019 0.0009676987 -0.0005609557 0.0010465266 -0.0005504677 0.0010650937 0.0015899008 -0.0010756417 -0.0015511877
ambani 0.00037138115 0.0011778268 0.00035670729 -0.0012572081 0.00059681595 0.0015763694 -0.0006341309 0.0012793291 0.0010877034 -0.0009941487 0.00056562916 -0.0008410806 0.0008898156 0.000760716 0.00081121514 -5.089097e-05 -0.0015187778 -0.00056499074 0.0007363972 0.0005112612 0.0014274896 -0.001314069 0.0006237538 0.0012489307 -0.0014902913 -0.000315034 4.5672878e-05 -0.0011660572 0.0009899238 0.00094954827 0.00024337748 -0.0011812049 0.0012479441 -0.0015663041 -0.00021826805 1.9742245e-05 -0.00023192869 0.00094516866 0.0015668526 0.0007927332 0.00025661892 -0.0011336284 0.00013114593 0.0011459137 -3.952456e-05 0.00032812508 0.00031637988 0.0009353287 0.0013409097 0.00037856394 0.0005285597 0.00065714173 -0.0007271839 0.0010782062 -0.0011022015 -0.00029370308 -0.0008764954 -0.00043625897 0.00042769348 -0.00021163032 -0.00026895807 0.0011613548 -0.0011306029 -0.0006661285 0.0010106534 -0.000109802895 -0.00067678647 -0.0010230753 0.0013737 0.0011109146 -0.0005747747 -0.00065521477 -0.0006844044 0.0010158414 0.00082294276 0.0005293282 -0.0008573706 0.0007041686 -3.9466773e-05 -0.0008496254 -0.0014707409 -0.00097514386 0.0016264558 0.00074087275 -0.0015618686 -0.0009414728 -9.9822355e-06 -0.0010054067 0.0015521916 0.0014441693 -0.00030923574 0.0007235908 0.0010513454 -0.00095783133 -0.0002648064 -0.0014128353 0.0013045662 -0.0008075927 0.0014378855 -0.0015632713 -0.0004240029 -0.0009932886 0.00096100895 0.000806305 -0.0014503065 -0.0007845369 -0.0009810897 -0.00083185453 -0.00039738623 0.0010118173 0.0013925042 -0.0010383113 -0.0005717689 0.0011849899 -0.00017015343 0.0015327204 -0.0011904633 -0.0015829636 -0.00012484183 0.0010853844 -0.0006227233 -0.00038997273 0.0013260378 -0.00011196117 -0.0009391726 -0.0015788014 -0.00024116327 0.00036381494 0.00043514115 -0.00090855855 0.0009267717 0.00107381 -0.0004213214 -0.0011719763 -5.005288e-05 0.0009783835 4.5106004e-05 0.0011471191 0.0015070416 -0.0007822502 -0.0005977353 -0.00054662005 -0.00081947097 -0.00029827858 0.00081544317 0.0008569819 0.0009949564 0.00047790728 0.0010455237 0.0002726032 0.0014155103 -0.0014430094 0.0004949851 -0.0014104394 0.0009380559 -0.0015269966 -0.0014183265 -0.0004712303 -0.00092774554 0.0007369294 -0.0010333596 0.00028969356 -0.0010868434 -0.0013449125 0.00063650456 -0.00025899542 0.00046081227 -1.1462962e-05 -6.70533e-05 -0.00048494677 0.0006638961 -0.0008819634 -0.001665364 -0.0015442924 0.0004909371 -0.00010697827 0.00041397323 0.00027913667 -0.0012595109 -0.0012800011 -0.00010672818 0.0014573914 0.0012661878 0.0015341383 -0.0002587862 0.0005578529 0.0005983208 0.0016123488 0.0013093044 0.00064986286 0.0014262014 0.00090848486 0.00046198128 -0.0013478058 0.00039637947 0.00018987311 0.0006535449 -0.00027447546 0.0007436635 0.00044935016 0.00051811157 0.0006807716 0.0006479135 -0.0006520623 -0.0004324269 0.001016135 0.0016557398 0.00042031295 0.00072509854 -9.6614815e-05 0.00047021234 0.0008755818 0.00041917985 0.000836231 -0.0014845077 -0.0014492078 -0.00074414205 0.0010879233 -0.0008207703 0.0013544557 -0.00017327769 0.0014320477 -0.0005221785 3.247363e-05 0.00060860673 0.0011084329 -2.5061532e-05 -0.0008927311 0.0004621946 -0.00046613454 -7.9056095e-05 0.0006604178 1.1421905e-05 -0.0003299514 -1.4014018e-05 0.000597108 -0.0013660458 -0.00030870948 -3.6047284e-05 -0.00053909054 -0.0014957748 -0.0007527862 -0.0005974353 0.00036118348 -0.00025880005 9.607325e-05 -0.0012524837 0.00052267377 0.0005557091 0.0014904876 0.0002779326 0.0015969037 0.0004382127 -0.0014071292 -0.0015502276 -0.0013271217 -0.0015225272 0.00074510614 -0.001091886 -0.0016388875 0.0008427675 -0.0007818109 -0.00020600282 0.0007861469 0.00019631528 0.0007769216 -0.00020186456 -0.00088309514 0.00038975416 -0.0015915582 -0.00087757554 -0.00049693196 -0.00073847163 0.0010419621 -5.8512185e-05 -0.00011396742 -0.001503237 0.00097376725 0.0013700171 0.00084815675 -0.000291616 -0.0007565571 -0.0014658773 0.0008613737 -0.0011945438 0.00090591004 0.00044138296 0.00027323715 -0.0010488041 -0.00076039624 0.0013529625 0.0015698861 -0.0015758545 -0.00032870614 -0.0007136632 0.00057567435 0.0014036987 0.00024067305 -0.00071129395 -0.00057384
anand -0.0015919148 -0.00018458969 -0.0014487123 0.0006809993 -0.00095688016 0.00048395008 0.0008926102 -0.0011428132 -0.0011495395 -0.00080680643 -3.084523e-05 -0.0010415043 0.0013635026 0.0011374814 -0.00013918638 -0.0005528498 0.001144519 0.0014007115 -0.0014120612 -0.0005088414 3.667706e-05 -0.00086403464 0.0010930342 -0.0014094589 0.0012044201 -0.0006675789 0.0008300436 0.0012761556 -0.00028536172 -0.00011195696 -0.00011291016 0.0008252291 0.0010660231 0.0008410594 0.0011077082 0.00050878874 0.0013537426 0.00044738082 -0.0012897528 -0.00086863374 0.00138511 0.001178655 -0.00070269447 0.0015806652 0.0012315456 0.0012990689 0.0005376585 0.0015777566 -0.00074614346 -0.0008643422 0.00090099167 -0.000106939326 -0.0008035698 0.0013048812 -0.00018524422 -0.00086383725 0.00090431725 0.0011416142 -9.026074e-05 0.0014250661 -0.00037493574 -0.0010568928 0.0003742113 -0.0014861275 -0.0010122869 0.0007452158 0.0015546448 0.0013020784 0.00018942656 -0.0014015917 -0.00029868045 -0.00029869843 1.7115566e-05 0.0007801032 -0.00065645645 0.0003231176 0.0015873531 -0.0009488933 -0.00075202825 0.0003384494 -0.0012244964 -0.00035706675 -0.0012163752 0.0014649704 -0.001122485 -0.0014503539 -0.00018240164 -0.0005922604 -0.0003063403 -0.00024825963 -0.0014737485 -0.0006275308 -0.0014299055 0.001143337 -0.0010853728 0.00044852553 0.0014481627 -0.00085453637 6.576652e-05 -4.0465184e-05 1.6665934e-05 0.00030486312 0.0014374378 0.0011713287 -0.0001977123 0.0012897172 0.00054518477 -0.0012346542 0.00024646343 0.0008567074 -0.0013260116 -0.0013566036 -0.0011357572 -0.00040514703 0.00010706284 0.0013115506 -0.00055685034 0.00084562297 -0.0011118515 -0.0010313926 0.0010127929 -0.0005693699 5.189755e-05 -0.00013420923 0.00022421835 0.000296342 -0.0012992842 0.00097106607 -0.00063174195 -0.00028743234 0.00051542977 8.02631e-05 0.0016474756 0.001302137 0.00072455907 0.0014961745 -0.0007018849 -0.00094265206 0.0003891198 5.2508807e-05 9.14856e-05 -0.00042019997 -0.0007688951 0.0015481998 0.00095280487 -0.0008870108 0.00043273313 0.0015701309 -0.0007471256 0.0014457193 0.0013827943 -0.001098696 -0.0006230369 0.0014859786 0.00047025605 -0.0012589867 0.00045698878 9.6362775e-05 0.0014659703 -0.0013760456 0.0016166712 -0.0012244404 -0.00035848832 -0.00011650102 0.0014284408 -0.0010366858 0.00034849936 -7.891513e-05 0.0016227469 -0.0008158655 0.0006040194 0.0010283592 -0.0009842578 -4.9801813e-05 0.0015216069 0.0011245965 0.0012159264 -0.00082049536 -0.0011575917 -0.0014901237 0.0004561878 -0.00091333844 -0.0002284026 -0.00115771 0.0013359465 0.0008321098 7.5616386e-05 -0.00027032182 -2.8686041e-05 0.00037977673 0.0013346175 -0.0012203522 -0.0016563021 -0.0006106449 -0.0009734899 0.00048045442 0.0014474663 1.729706e-05 -0.0006095353 -0.00097127084 0.0006834521 0.00046441215 -0.0015237131 0.0015320472 -0.00049607083 0.00091027864 -0.00048978615 0.0013187673 -0.0009598977 0.0015052339 0.001207457 0.0008562147 -0.0005844155 -0.0003509314 0.00026074325 -0.0015902059 -0.00059591903 -0.0013292923 -0.001643676 -0.00047609035 0.00045931767 0.0014346412 -0.0014281678 0.0010915607 4.3750213e-05 0.0016584466 -0.0005556089 0.0004862126 -0.0015059449 -0.0011577561 0.00015106106 -0.00094402046 0.0010861496 -0.00015441737 0.00054343115 0.0004712437 -0.0013065654 -0.0010899263 0.0008060208 -0.0007218994 0.00042515818 0.0010864277 0.0012150888 -0.0010424029 0.0014785789 0.0008424605 0.0010364195 0.0006790025 -0.0002642545 0.00083256495 -0.0007789905 0.00010337104 -0.001289335 -0.00030079338 -0.00018995261 -0.0010895459 0.0011165638 -4.7594753e-05 0.0009742913 -0.0013355294 0.0007754104 0.0016432763 -0.0011855351 7.541918e-05 0.00016403425 0.00044470193 0.0013316625 -0.001522159 9.2072216e-05 0.0011256728 0.0013730135 0.0013448487 0.000719083 -0.0016071749 0.0009153067 -0.0011724574 -0.0006883483 0.00014907248 0.0015220152 0.00049483293 0.0006523542 0.000101514095 0.00048145652 0.00033470505 -0.0011385566 -0.0014744784 -0.0006910512 -0.001583988 0.0007742615 -0.0013543891 0.0003359705 -0.00090110174 0.00030857348 0.0016630229 0.00085514 0.0001718016 -0.0014549957 -0.0012990866 9.887072e-05 -0.001600795
piramal 0.00013402887 0.0011496777 -0.0009104759 0.0008176549 -0.00031766697 -0.0006912438 0.0015421935 -0.00021037442 0.0004570021 0.000939117 -0.0015268831 0.00062107795 -0.00017725947 0.0012305004 -0.00026568165 0.0014847815 -0.001149962 0.00019234282 0.001007776 -6.151859e-05 -0.001392538 -0.0014133061 0.0003211327 -0.00078918843 0.00156542 0.00043777807 -0.0014392368 0.0012189604 0.0002032118 -0.00079456985 -0.000118115546 -9.019284e-05 -0.00025448352 -0.000399928 0.0004779901 -0.0016622307 0.0015669211 -0.0009016292 0.00022228502 0.001394221 -0.001556431 -0.0004127099 -0.000733356 1.8782033e-05 -0.0005920385 -0.00089450425 0.00029936538 0.0009648212 -0.00017706661 -0.0014569756 0.0015160472 0.0011402441 0.0008705506 0.0008544966 -0.0008823948 -0.00012993984 0.00018749366 0.0013346795 0.00025082965 0.0013640734 0.0014267144 0.001159461 -0.00045357423 -0.0001266581 0.0005923199 -0.00042319574 -0.0008484485 0.000515653 0.00032524217 -0.0015383337 -0.0013223984 0.0014556451 0.0015390172 -3.8709994e-05 0.0002842873 0.00037062282 0.00043914607 0.0003553895 -0.0009860777 0.0011849314 0.00017789003 0.0012953866 0.00013168738 -0.00028046174 0.00042891802 -0.00015653878 -0.0015384621 -4.3104625e-05 0.00015208102 0.00083463977 0.00029237435 -0.00039096948 -0.0010206918 9.054058e-05 0.00024688462 -0.0014534667 7.105096e-05 0.0014288872 0.0009373996 -0.0012823803 0.00052163325 -0.0008009087 -0.0013519399 0.0015573232 0.00031982647 -0.00010461179 -0.0006377582 -0.00011300639 0.0004997301 0.001263592 -0.0007998232 -9.270031e-05 0.00052385085 -0.0011280541 -3.1989897e-05 0.0003013824 0.0013123313 0.0015237137 -0.0003653054 -0.0003859077 -0.0012029451 0.0012814886 0.0009496806 -0.00087091816 0.000284888 0.00029240345 -0.00011146904 0.0006423796 0.00039687895 -0.0013361734 0.001091787 -0.00025913827 -0.00040270423 0.00016199001 0.00063098967 0.001566928 -0.00045427898 -0.0012457939 0.001386014 0.0007733534 0.0015689407 0.00097624905 -0.0009346202 1.9438183e-05 -0.0010509967 -0.001030115 -0.0007951326 -0.00033131684 0.00012381411 -0.00051202386 0.0015504987 -0.0009153272 0.00026179166 -0.0013897239 -0.0008091529 -0.00017306636 -0.0014552674 -0.0016288352 -0.0012173278 -0.0007615562 0.0015173466 -0.00063468574 -0.0009235726 -0.000632851 0.00083300896 0.0015223259 0.001322213 -0.0007668626 -0.0015739517 0.0011103183 -0.0011868201 -0.0008168008 0.0006595252 -0.0005044112 -0.0006160961 0.00093001465 0.0005967799 -0.0007227174 -0.0016678786 -0.00016288513 0.0006601324 -0.00041740417 -0.0008296805 -0.00029545467 0.0009499506 -0.00055959006 -0.0004544628 0.0010382321 0.0014946461 -0.00017299889 0.0009827767 -0.00025731657 -0.00014966412 0.0012366505 0.0001800331 0.0016325117 -0.0010235038 0.001377251 -0.00019361799 -0.0015938414 -0.0011378991 0.0010140111 0.000665933 -0.0008213562 0.0010275128 -0.0012842293 -0.0015029083 -0.0012421929 0.0006741957 -0.00060513936 -0.00089741085 -0.0008662407 0.0015405943 0.0011922185 0.0007227748 -0.00040626808 0.0007552731 -0.0013561617 -0.00094121264 -0.0016651894 0.0016682695 -0.001498176 0.0015919724 -0.0007981289 0.0015212386 -0.0014288076 0.0012278822 0.0011155073 0.0012566205 0.00043323115 0.00076984486 -0.0012825315 -0.00019477439 -0.00036799035 0.0004001444 -0.0014855585 0.00073680334 -0.0012530298 -0.0011101569 0.00018961262 0.00035805572 0.00028610072 -0.0012782417 -0.0009011547 -0.0015159242 -0.0004718429 -0.0013228116 -0.0006712338 0.0010917085 0.0006224211 -0.0005039897 0.0015312183 -0.00038206019 -0.0010957526 7.632871e-05 -0.0016648255 0.001255683 0.0013855058 -0.00058986794 -0.00080732617 -0.0003830981 0.00092894206 0.0013770735 -5.795241e-05 0.0010978486 -0.0014350492 -0.00019789397 -0.00058300514 0.00077087496 -0.00077077135 -0.00093236286 -0.0012564907 0.00017004342 0.0014838142 0.0014700338 -0.00050347816 0.00087739795 -0.0012790292 0.0012096531 0.0007130671 0.0003051665 0.00066361786 -0.0005905976 0.0012062207 -0.0010759213 -0.0012492379 0.00080886896 0.0011058922 0.0011331664 -0.0010586525 -0.001072251 -0.0016646144 0.001197016 0.0006001692 -0.0011829681 4.104616e-05 0.0011949047 -0.0005014149 -0.001028048 -0.0010279072
